{"learner":{"attributes":{"scikit_learn":"{\"use_label_encoder\": false, \"n_estimators\": 1000, \"objective\": \"binary:logistic\", \"max_depth\": 3, \"learning_rate\": 0.1, \"verbosity\": null, \"booster\": null, \"tree_method\": null, \"gamma\": null, \"min_child_weight\": null, \"max_delta_step\": null, \"subsample\": null, \"colsample_bytree\": null, \"colsample_bylevel\": null, \"colsample_bynode\": null, \"reg_alpha\": null, \"reg_lambda\": null, \"scale_pos_weight\": 80, \"base_score\": null, \"missing\": NaN, \"num_parallel_tree\": null, \"kwargs\": {}, \"random_state\": 123, \"n_jobs\": null, \"monotone_constraints\": null, \"interaction_constraints\": null, \"importance_type\": \"total_gain\", \"gpu_id\": null, \"validate_parameters\": null, \"classes_\": [0, 1], \"n_classes_\": 2, \"_features_count\": 39, \"n_features_in_\": 39, \"type\": \"XGBClassifier\"}"},"gradient_booster":{"model":{"gbtree_model_param":{"num_trees":"1000","size_leaf_vector":"0"},"tree_info":[0,0,0,0,0,0,0,0,0,0,0,0,0,0,0,0,0,0,0,0,0,0,0,0,0,0,0,0,0,0,0,0,0,0,0,0,0,0,0,0,0,0,0,0,0,0,0,0,0,0,0,0,0,0,0,0,0,0,0,0,0,0,0,0,0,0,0,0,0,0,0,0,0,0,0,0,0,0,0,0,0,0,0,0,0,0,0,0,0,0,0,0,0,0,0,0,0,0,0,0,0,0,0,0,0,0,0,0,0,0,0,0,0,0,0,0,0,0,0,0,0,0,0,0,0,0,0,0,0,0,0,0,0,0,0,0,0,0,0,0,0,0,0,0,0,0,0,0,0,0,0,0,0,0,0,0,0,0,0,0,0,0,0,0,0,0,0,0,0,0,0,0,0,0,0,0,0,0,0,0,0,0,0,0,0,0,0,0,0,0,0,0,0,0,0,0,0,0,0,0,0,0,0,0,0,0,0,0,0,0,0,0,0,0,0,0,0,0,0,0,0,0,0,0,0,0,0,0,0,0,0,0,0,0,0,0,0,0,0,0,0,0,0,0,0,0,0,0,0,0,0,0,0,0,0,0,0,0,0,0,0,0,0,0,0,0,0,0,0,0,0,0,0,0,0,0,0,0,0,0,0,0,0,0,0,0,0,0,0,0,0,0,0,0,0,0,0,0,0,0,0,0,0,0,0,0,0,0,0,0,0,0,0,0,0,0,0,0,0,0,0,0,0,0,0,0,0,0,0,0,0,0,0,0,0,0,0,0,0,0,0,0,0,0,0,0,0,0,0,0,0,0,0,0,0,0,0,0,0,0,0,0,0,0,0,0,0,0,0,0,0,0,0,0,0,0,0,0,0,0,0,0,0,0,0,0,0,0,0,0,0,0,0,0,0,0,0,0,0,0,0,0,0,0,0,0,0,0,0,0,0,0,0,0,0,0,0,0,0,0,0,0,0,0,0,0,0,0,0,0,0,0,0,0,0,0,0,0,0,0,0,0,0,0,0,0,0,0,0,0,0,0,0,0,0,0,0,0,0,0,0,0,0,0,0,0,0,0,0,0,0,0,0,0,0,0,0,0,0,0,0,0,0,0,0,0,0,0,0,0,0,0,0,0,0,0,0,0,0,0,0,0,0,0,0,0,0,0,0,0,0,0,0,0,0,0,0,0,0,0,0,0,0,0,0,0,0,0,0,0,0,0,0,0,0,0,0,0,0,0,0,0,0,0,0,0,0,0,0,0,0,0,0,0,0,0,0,0,0,0,0,0,0,0,0,0,0,0,0,0,0,0,0,0,0,0,0,0,0,0,0,0,0,0,0,0,0,0,0,0,0,0,0,0,0,0,0,0,0,0,0,0,0,0,0,0,0,0,0,0,0,0,0,0,0,0,0,0,0,0,0,0,0,0,0,0,0,0,0,0,0,0,0,0,0,0,0,0,0,0,0,0,0,0,0,0,0,0,0,0,0,0,0,0,0,0,0,0,0,0,0,0,0,0,0,0,0,0,0,0,0,0,0,0,0,0,0,0,0,0,0,0,0,0,0,0,0,0,0,0,0,0,0,0,0,0,0,0,0,0,0,0,0,0,0,0,0,0,0,0,0,0,0,0,0,0,0,0,0,0,0,0,0,0,0,0,0,0,0,0,0,0,0,0,0,0,0,0,0,0,0,0,0,0,0,0,0,0,0,0,0,0,0,0,0,0,0,0,0,0,0,0,0,0,0,0,0,0,0,0,0,0,0,0,0,0,0,0,0,0,0,0,0,0,0,0,0,0,0,0,0,0,0,0,0,0,0,0,0,0,0,0,0,0,0,0,0,0,0,0,0,0,0,0,0,0,0,0,0,0,0,0,0,0,0,0,0,0,0,0,0,0,0,0,0,0,0,0,0,0,0,0,0,0,0,0,0,0,0,0,0,0,0,0,0,0,0,0,0,0,0,0,0,0,0,0,0,0,0,0,0,0,0,0,0,0,0,0,0,0,0,0,0,0,0,0,0,0,0,0,0,0,0,0,0,0,0,0,0,0,0,0,0,0,0,0,0,0,0,0,0,0,0,0,0,0,0,0,0,0,0,0,0,0,0,0,0,0,0,0,0,0,0,0,0,0,0,0,0,0,0,0,0,0,0,0,0,0,0,0,0,0,0,0,0,0,0,0,0,0,0,0,0,0,0,0,0,0,0,0,0,0,0,0,0,0,0,0,0,0,0,0,0,0,0,0,0,0,0,0,0,0,0,0,0,0,0,0,0,0],"trees":[{"base_weights":[-1.6927564E-1,-3.4725243E-1,1.3603543E-1,-2.8011367E-1,-1.0681063E0,3.3425492E-1,-2.1087754E-1,1.0738832E-2,-4.43686E-1,-1.7588235E0,-7.953757E-1,-9.3816984E-1,4.1226164E-1,-1.3419442E0,-5.265659E-2],"categories":[],"categories_nodes":[],"categories_segments":[],"categories_sizes":[],"default_left":[true,true,true,true,true,true,true,false,false,false,false,false,false,false,false],"id":0,"left_children":[1,3,5,7,9,11,13,-1,-1,-1,-1,-1,-1,-1,-1],"loss_changes":[1.2158528E3,6.8380786E2,5.667278E2,6.152621E2,2.2541028E2,5.209434E2,5.362678E2,0E0,0E0,0E0,0E0,0E0,0E0,0E0,0E0],"parents":[2147483647,0,0,1,1,2,2,3,3,4,4,5,5,6,6],"right_children":[2,4,6,8,10,12,14,-1,-1,-1,-1,-1,-1,-1,-1],"split_conditions":[3.7940952E-1,5E-1,3.7940952E-1,-3.7940952E-1,-7.865661E-1,-9.66812E-1,-8.38272E-1,1.0738833E-3,-4.4368602E-2,-1.7588235E-1,-7.953757E-2,-9.381699E-2,4.1226164E-2,-1.3419442E-1,-5.265659E-3],"split_indices":[0,27,1,1,0,5,4,0,0,0,0,0,0,0,0],"split_type":[0,0,0,0,0,0,0,0,0,0,0,0,0,0,0],"sum_hessian":[2.237375E4,1.413425E4,8.2395E3,1.293125E4,1.203E3,5.2435E3,2.996E3,4.655E3,8.27625E3,3.39E2,8.64E2,3.0225E2,4.94125E3,3.6675E2,2.62925E3],"tree_param":{"num_deleted":"0","num_feature":"39","num_nodes":"15","size_leaf_vector":"0"}},{"base_weights":[-1.5246898E-1,-3.127439E-1,1.2246654E-1,-1.16598465E-1,-5.3079873E-1,3.009797E-1,-1.8996637E-1,-3.063847E-1,2.9962692E-1,-1.9545828E0,-4.584365E-1,-8.4658486E-1,3.7120748E-1,-1.8618258E0,-1.0251478E-1],"categories":[],"categories_nodes":[],"categories_segments":[],"categories_sizes":[],"default_left":[true,true,true,true,true,true,true,false,false,false,false,false,false,false,false],"id":1,"left_children":[1,3,5,7,9,11,13,-1,-1,-1,-1,-1,-1,-1,-1],"loss_changes":[9.85438E2,6.0416516E2,4.5941083E2,5.8768896E2,6.883302E2,4.2275058E2,4.3774744E2,0E0,0E0,0E0,0E0,0E0,0E0,0E0,0E0],"parents":[2147483647,0,0,1,1,2,2,3,3,4,4,5,5,6,6],"right_children":[2,4,6,8,10,12,14,-1,-1,-1,-1,-1,-1,-1,-1],"split_conditions":[3.7940952E-1,-8.87569E-2,3.7940952E-1,-4.5972848E-1,1.5175309E-3,-9.66812E-1,-9.330127E-1,-3.0638471E-2,2.9962692E-2,-1.9545828E-1,-4.584365E-2,-8.465849E-2,3.712075E-2,-1.8618259E-1,-1.0251478E-2],"split_indices":[0,8,1,4,13,5,10,0,0,0,0,0,0,0,0],"split_type":[0,0,0,0,0,0,0,0,0,0,0,0,0,0,0],"sum_hessian":[2.2361277E4,1.4126204E4,8.235072E3,7.437517E3,6.688687E3,5.240737E3,2.9943357E3,5.108471E3,2.3290454E3,3.2224518E2,6.366442E3,3.0158588E2,4.939151E3,1.4783345E2,2.8465024E3],"tree_param":{"num_deleted":"0","num_feature":"39","num_nodes":"15","size_leaf_vector":"0"}},{"base_weights":[-1.3744207E-1,-2.818447E-1,1.1030446E-1,-2.2150286E-1,-9.326804E-1,-6.532397E-2,3.9983296E-1,4.0329453E-2,-3.6894125E-1,-3.0187607E-1,-1.1984274E0,-3.205384E-2,-1.9848422E0,-2.013404E0,4.4960013E-1],"categories":[],"categories_nodes":[],"categories_segments":[],"categories_sizes":[],"default_left":[true,true,true,true,true,true,true,false,false,false,false,false,false,false,false],"id":2,"left_children":[1,3,5,7,9,11,13,-1,-1,-1,-1,-1,-1,-1,-1],"loss_changes":[7.990974E2,5.53979E2,4.1828775E2,4.9859644E2,2.0029578E2,3.2695572E2,3.739146E2,0E0,0E0,0E0,0E0,0E0,0E0,0E0,0E0],"parents":[2147483647,0,0,1,1,2,2,3,3,4,4,5,5,6,6],"right_children":[2,4,6,8,10,12,14,-1,-1,-1,-1,-1,-1,-1,-1],"split_conditions":[3.7940952E-1,5E-1,5.1236665E-1,-3.7940952E-1,-7.9450536E-1,5E-1,3.8127115E-3,4.0329453E-3,-3.6894124E-2,-3.0187607E-2,-1.19842745E-1,-3.205384E-3,-1.9848423E-1,-2.0134039E-1,4.4960015E-2],"split_indices":[0,27,4,1,8,33,12,0,0,0,0,0,0,0,0],"split_type":[0,0,0,0,0,0,0,0,0,0,0,0,0,0,0],"sum_hessian":[2.2334727E4,1.4110235E4,8.224492E3,1.2914239E4,1.1959961E3,5.119668E3,3.104824E3,4.6525728E3,8.261666E3,3.5513855E2,8.408575E2,5.0334424E3,8.622566E1,6.193846E1,3.0428855E3],"tree_param":{"num_deleted":"0","num_feature":"39","num_nodes":"15","size_leaf_vector":"0"}},{"base_weights":[-1.23928145E-1,-2.128163E-3,-3.8376632E-1,6.0541805E-2,-7.709236E-1,-4.425231E-1,6.8881124E-1,-1.6523503E-1,2.3786518E-1,-1.2473824E0,-2.1694054E-1,-3.7769735E-1,-1.1756792E0,8.9399433E-1,-1.8356296E0],"categories":[],"categories_nodes":[],"categories_segments":[],"categories_sizes":[],"default_left":[true,true,true,true,true,true,true,false,false,false,false,false,false,false,false],"id":3,"left_children":[1,3,5,7,9,11,13,-1,-1,-1,-1,-1,-1,-1,-1],"loss_changes":[7.059127E2,7.317778E2,4.4892944E2,5.622795E2,3.018957E2,3.2034338E2,1.9334427E2,0E0,0E0,0E0,0E0,0E0,0E0,0E0,0E0],"parents":[2147483647,0,0,1,1,2,2,3,3,4,4,5,5,6,6],"right_children":[2,4,6,8,10,12,14,-1,-1,-1,-1,-1,-1,-1,-1],"split_conditions":[6.035534E-1,5E-1,1.8975858E-2,-3.7940952E-1,1.2940952E-1,2.4729751E-2,7.5486517E-1,-1.6523503E-2,2.3786519E-2,-1.2473824E-1,-2.1694055E-2,-3.7769735E-2,-1.1756792E-1,8.9399435E-2,-1.8356296E-1],"split_indices":[1,27,13,0,0,12,3,0,0,0,0,0,0,0,0],"split_type":[0,0,0,0,0,0,0,0,0,0,0,0,0,0,0],"sum_hessian":[2.2303953E4,1.5186323E4,7.1176304E3,1.4042538E4,1.1437856E3,6.7485273E3,3.6910306E2,6.1773286E3,7.8652095E3,6.142456E2,5.2954E2,6.2016885E3,5.468388E2,3.4195526E2,2.7147789E1],"tree_param":{"num_deleted":"0","num_feature":"39","num_nodes":"15","size_leaf_vector":"0"}},{"base_weights":[-1.118051E-1,-1.7712489E-1,2.966439E-1,-1.2851468E-1,-7.248602E-1,4.574222E-1,-1.4598493E-1,8.654066E-2,-2.5890657E-1,-9.986333E-1,-5.2774854E-2,-9.287498E-2,6.2961304E-1,-2.052905E0,-1.1654153E-2],"categories":[],"categories_nodes":[],"categories_segments":[],"categories_sizes":[],"default_left":[true,true,true,true,true,true,true,false,false,false,false,false,false,false,false],"id":4,"left_children":[1,3,5,7,9,11,13,-1,-1,-1,-1,-1,-1,-1,-1],"loss_changes":[5.941061E2,5.110315E2,2.1856165E2,4.9448346E2,2.878286E2,2.1348944E2,2.0972581E2,0E0,0E0,0E0,0E0,0E0,0E0,0E0,0E0],"parents":[2147483647,0,0,1,1,2,2,3,3,4,4,5,5,6,6],"right_children":[2,4,6,8,10,12,14,-1,-1,-1,-1,-1,-1,-1,-1],"split_conditions":[9.159756E-1,5E-1,9.829629E-1,-3.7940952E-1,7.512816E-3,-5.8427656E-1,-9.291328E-1,8.654066E-3,-2.5890658E-2,-9.9863335E-2,-5.2774856E-3,-9.287498E-3,6.29613E-2,-2.0529051E-1,-1.1654153E-3],"split_indices":[0,27,0,1,13,5,4,0,0,0,0,0,0,0,0],"split_type":[0,0,0,0,0,0,0,0,0,0,0,0,0,0,0],"sum_hessian":[2.226504E4,1.9195785E4,3.069253E3,1.7632205E4,1.5635817E3,2.2514236E3,8.178293E2,6.6555474E3,1.0976657E4,1.110667E3,4.5291467E2,5.366924E2,1.7147313E3,5.2879864E1,7.649494E2],"tree_param":{"num_deleted":"0","num_feature":"39","num_nodes":"15","size_leaf_vector":"0"}},{"base_weights":[-1.0086632E-1,-2.927483E-1,1.8510716E-2,-1.1289197E0,-2.3199989E-1,1.8659705E-1,-1.8778454E-1,6.0048554E-2,-1.4561504E0,-4.5263332E-1,-1.1051634E-3,-6.482935E-1,2.3956533E-1,-2.748649E-1,5.4150105E-1],"categories":[],"categories_nodes":[],"categories_segments":[],"categories_sizes":[],"default_left":[true,true,true,true,true,true,true,false,false,false,false,false,false,false,false],"id":5,"left_children":[1,3,5,7,9,11,13,-1,-1,-1,-1,-1,-1,-1,-1],"loss_changes":[5.0904828E2,4.326819E2,4.7511105E2,2.2458527E2,4.0485226E2,3.3403534E2,3.908211E2,0E0,0E0,0E0,0E0,0E0,0E0,0E0,0E0],"parents":[2147483647,0,0,1,1,2,2,3,3,4,4,5,5,6,6],"right_children":[2,4,6,8,10,12,14,-1,-1,-1,-1,-1,-1,-1,-1],"split_conditions":[-3.7940952E-1,1.5671414E-3,3.7940952E-1,-9.08784E-1,8.167337E-2,-9.66812E-1,9.330127E-1,6.0048555E-3,-1.4561504E-1,-4.526333E-2,-1.1051634E-4,-6.482935E-2,2.3956534E-2,-2.7486492E-2,5.4150105E-2],"split_indices":[0,13,1,5,5,5,11,0,0,0,0,0,0,0,0],"split_type":[0,0,0,0,0,0,0,0,0,0,0,0,0,0,0],"sum_hessian":[2.2221832E4,8.522172E3,1.3699659E4,5.76016E2,7.9461562E3,7.5489673E3,6.150692E3,1.2449376E2,4.5152225E2,4.062878E3,3.883278E3,4.4968915E2,7.0992783E3,5.4951646E3,6.555272E2],"tree_param":{"num_deleted":"0","num_feature":"39","num_nodes":"15","size_leaf_vector":"0"}},{"base_weights":[-9.102156E-2,-4.9658712E-2,-5.667311E-1,5.725158E-2,-2.830483E-1,-1.4229172E0,-4.2032096E-1,-5.047919E-1,9.852832E-2,-3.3447215E-1,6.173893E-1,-1.7372603E0,-2.941765E-1,-1.2657945E0,-2.480626E-1],"categories":[],"categories_nodes":[],"categories_segments":[],"categories_sizes":[],"default_left":[true,true,true,true,true,true,true,false,false,false,false,false,false,false,false],"id":6,"left_children":[1,3,5,7,9,11,13,-1,-1,-1,-1,-1,-1,-1,-1],"loss_changes":[4.3636655E2,5.091618E2,2.2178522E2,3.2473447E2,2.970506E2,9.125934E1,2.2053317E2,0E0,0E0,0E0,0E0,0E0,0E0,0E0,0E0],"parents":[2147483647,0,0,1,1,2,2,3,3,4,4,5,5,6,6],"right_children":[2,4,6,8,10,12,14,-1,-1,-1,-1,-1,-1,-1,-1],"split_conditions":[5E-1,6.035534E-1,-8.1971E-1,-9.330127E-1,1.8975858E-2,9.159756E-1,-7.865661E-1,-5.0479192E-2,9.852832E-3,-3.3447217E-2,6.1738934E-2,-1.7372604E-1,-2.9417649E-2,-1.2657945E-1,-2.480626E-2],"split_indices":[27,1,2,11,13,1,0,0,0,0,0,0,0,0,0],"split_type":[0,0,0,0,0,0,0,0,0,0,0,0,0,0,0],"sum_hessian":[2.2177244E4,2.0404207E4,1.7730374E3,1.3994438E4,6.4097686E3,2.576452E2,1.5153922E3,9.566748E2,1.3037764E4,6.0640786E3,3.4569012E2,2.0110136E2,5.6543842E1,2.5541641E2,1.2599758E3],"tree_param":{"num_deleted":"0","num_feature":"39","num_nodes":"15","size_leaf_vector":"0"}},{"base_weights":[-8.216101E-2,-2.567755E-1,2.6230501E-2,-1.0261232E0,-2.0176157E-1,1.6585496E-1,-1.4549068E-1,6.549216E-2,-1.3333071E0,-5.167221E-1,-6.593222E-2,-1.9728079E0,1.8599187E-1,-2.2434892E-1,5.11202E-1],"categories":[],"categories_nodes":[],"categories_segments":[],"categories_sizes":[],"default_left":[true,true,true,true,true,true,true,false,false,false,false,false,false,false,false],"id":7,"left_children":[1,3,5,7,9,11,13,-1,-1,-1,-1,-1,-1,-1,-1],"loss_changes":[4.189812E2,3.5864197E2,3.275238E2,1.897367E2,3.3852875E2,3.2483258E2,3.1735706E2,0E0,0E0,0E0,0E0,0E0,0E0,0E0,0E0],"parents":[2147483647,0,0,1,1,2,2,3,3,4,4,5,5,6,6],"right_children":[2,4,6,8,10,12,14,-1,-1,-1,-1,-1,-1,-1,-1],"split_conditions":[-3.7940952E-1,1.5671414E-3,3.7940952E-1,-9.08784E-1,1.0525143E-2,2.2986443E-3,9.330127E-1,6.5492163E-3,-1.3333072E-1,-5.167221E-2,-6.5932223E-3,-1.972808E-1,1.8599188E-2,-2.2434892E-2,5.11202E-2],"split_indices":[0,13,1,5,12,12,11,0,0,0,0,0,0,0,0],"split_type":[0,0,0,0,0,0,0,0,0,0,0,0,0,0,0],"sum_hessian":[2.2135656E4,8.477448E3,1.3658207E4,5.645661E2,7.912882E3,7.533137E3,6.1250703E3,1.2415456E2,4.4041153E2,2.3834182E3,5.5294634E3,6.93633E1,7.463774E3,5.4689907E3,6.560795E2],"tree_param":{"num_deleted":"0","num_feature":"39","num_nodes":"15","size_leaf_vector":"0"}},{"base_weights":[-7.417993E-2,-3.7192285E-2,-5.051505E-1,5.4669358E-2,-2.3847596E-1,-1.3097651E0,-3.7043202E-1,-1.8268634E-1,1.3657169E-1,-2.8455395E-1,6.072219E-1,-1.6218133E0,-1.5478212E-1,-6.085366E-1,2.0803237E-1],"categories":[],"categories_nodes":[],"categories_segments":[],"categories_sizes":[],"default_left":[true,true,true,true,true,true,true,false,false,false,false,false,false,false,false],"id":8,"left_children":[1,3,5,7,9,11,13,-1,-1,-1,-1,-1,-1,-1,-1],"loss_changes":[3.5208362E2,3.7617163E2,1.8875333E2,2.7159076E2,2.4860095E2,8.984689E1,2.0629018E2,0E0,0E0,0E0,0E0,0E0,0E0,0E0,0E0],"parents":[2147483647,0,0,1,1,2,2,3,3,4,4,5,5,6,6],"right_children":[2,4,6,8,10,12,14,-1,-1,-1,-1,-1,-1,-1,-1],"split_conditions":[5E-1,6.035534E-1,-8.1971E-1,1.0076188E-2,5E-1,8.117449E-1,7.512816E-3,-1.8268635E-2,1.3657169E-2,-2.8455395E-2,6.072219E-2,-1.6218133E-1,-1.5478211E-2,-6.085366E-2,2.0803237E-2],"split_indices":[27,1,2,12,37,7,13,0,0,0,0,0,0,0,0],"split_type":[0,0,0,0,0,0,0,0,0,0,0,0,0,0,0],"sum_hessian":[2.208742E4,2.0342621E4,1.7448E3,1.3968444E4,6.3741763E3,2.4898703E2,1.495813E3,3.5831438E3,1.0385301E4,6.045452E3,3.2872385E2,1.9570746E2,5.3279564E1,1.0596099E3,4.3620325E2],"tree_param":{"num_deleted":"0","num_feature":"39","num_nodes":"15","size_leaf_vector":"0"}},{"base_weights":[-6.69501E-2,-2.2816837E-1,3.291893E-2,-4.138805E-1,-3.328774E-2,1.4820142E-1,-1.0929543E-1,-6.441441E-1,1.0404906E-2,1.5373166E-1,-6.542908E-1,1.7038103E-3,3.8917074E-1,-1.6294692E-1,8.108024E-1],"categories":[],"categories_nodes":[],"categories_segments":[],"categories_sizes":[],"default_left":[true,true,true,true,true,true,true,false,false,false,false,false,false,false,false],"id":9,"left_children":[1,3,5,7,9,11,13,-1,-1,-1,-1,-1,-1,-1,-1],"loss_changes":[3.5501984E2,3.052385E2,2.232508E2,4.2192914E2,4.7820724E2,2.654862E2,3.0108813E2,0E0,0E0,0E0,0E0,0E0,0E0,0E0,0E0],"parents":[2147483647,0,0,1,1,2,2,3,3,4,4,5,5,6,6],"right_children":[2,4,6,8,10,12,14,-1,-1,-1,-1,-1,-1,-1,-1],"split_conditions":[-3.7940952E-1,8.167337E-2,3.7940952E-1,8.308867E-3,4.381346E-1,5.1236665E-1,5E-1,-6.441441E-2,1.0404907E-3,1.5373166E-2,-6.5429084E-2,1.7038103E-4,3.8917076E-2,-1.6294694E-2,8.108024E-2],"split_indices":[0,5,1,13,3,4,15,0,0,0,0,0,0,0,0],"split_type":[0,0,0,0,0,0,0,0,0,0,0,0,0,0,0],"sum_hessian":[2.204848E4,8.433317E3,1.3615163E4,4.3176626E3,4.1156543E3,7.519571E3,6.0955923E3,2.7984172E3,1.5192454E3,3.1636514E3,9.5200323E2,4.677118E3,2.8424526E3,5.760516E3,3.350765E2],"tree_param":{"num_deleted":"0","num_feature":"39","num_nodes":"15","size_leaf_vector":"0"}},{"base_weights":[-6.042696E-2,-1.3414145E0,-4.9555946E-2,-1.7445116E0,1.3485647E0,-1.625739E-2,-4.426045E-1,1.8629771E0,-1.4086928E0,6.255601E-2,-1.8949123E-1,-1.1661395E0,-2.9713893E-1],"categories":[],"categories_nodes":[],"categories_segments":[],"categories_sizes":[],"default_left":[true,true,true,false,true,true,true,false,false,false,false,false,false],"id":10,"left_children":[1,3,5,-1,7,9,11,-1,-1,-1,-1,-1,-1],"loss_changes":[3.0635724E2,2.0309128E2,2.855739E2,0E0,3.7644352E1,2.746722E2,1.7901535E2,0E0,0E0,0E0,0E0,0E0,0E0],"parents":[2147483647,0,0,1,1,2,2,4,4,5,5,6,6],"right_children":[2,4,6,-1,8,10,12,-1,-1,-1,-1,-1,-1],"split_conditions":[1.8030946E-3,5E-1,5E-1,-1.7445116E-1,-6.573704E-1,6.035534E-1,-7.865661E-1,1.8629771E-1,-1.4086929E-1,6.2556015E-3,-1.8949123E-2,-1.1661395E-1,-2.9713893E-2],"split_indices":[12,15,27,0,3,1,0,0,0,0,0,0,0],"split_type":[0,0,0,0,0,0,0,0,0,0,0,0,0],"sum_hessian":[2.2003285E4,1.8412819E2,2.1819156E4,1.6043784E2,2.3690353E1,2.0115998E4,1.7031593E3,2.0238804E1,3.4515493E0,1.3826306E4,6.2896924E3,2.8392435E2,1.4192349E3],"tree_param":{"num_deleted":"0","num_feature":"39","num_nodes":"13","size_leaf_vector":"0"}},{"base_weights":[-5.4562148E-2,-2.0107847E-1,3.5938606E-2,-9.043492E-1,-1.5220179E-1,1.4843781E-2,7.1005106E-1,1.3217975E-1,-1.2071044E0,-3.353045E-1,3.755272E-2,1.2449714E-1,-1.22451596E-1,1.0973185E0,-1.0029722E0],"categories":[],"categories_nodes":[],"categories_segments":[],"categories_sizes":[],"default_left":[true,true,true,true,true,true,true,false,false,false,false,false,false,false,false],"id":11,"left_children":[1,3,5,7,9,11,13,-1,-1,-1,-1,-1,-1,-1,-1],"loss_changes":[2.912414E2,2.881386E2,1.9307326E2,1.7111981E2,2.7250696E2,1.9824423E2,2.744077E2,0E0,0E0,0E0,0E0,0E0,0E0,0E0,0E0],"parents":[2147483647,0,0,1,1,2,2,3,3,4,4,5,5,6,6],"right_children":[2,4,6,8,10,12,14,-1,-1,-1,-1,-1,-1,-1,-1],"split_conditions":[-3.7940952E-1,1.5671414E-3,5E-1,-9.08784E-1,8.167337E-2,3.7940952E-1,1.3848226E-2,1.3217975E-2,-1.2071045E-1,-3.353045E-2,3.7552721E-3,1.2449714E-2,-1.224516E-2,1.0973185E-1,-1.0029723E-1],"split_indices":[0,13,16,5,5,1,12,0,0,0,0,0,0,0,0],"split_type":[0,0,0,0,0,0,0,0,0,0,0,0,0,0,0],"sum_hessian":[2.1962629E4,8.385572E3,1.3577056E4,5.437811E2,7.841791E3,1.3166075E4,4.1098053E2,1.2305315E2,4.2072797E2,3.990454E3,3.851337E3,7.319957E3,5.8461187E3,3.35494E2,7.548655E1],"tree_param":{"num_deleted":"0","num_feature":"39","num_nodes":"15","size_leaf_vector":"0"}},{"base_weights":[-4.9270242E-2,-1.2396097E0,-3.945742E-2,-1.6209993E0,1.2373645E0,-1.19546644E-1,9.66983E-2,1.708986E0,-1.3162457E0,5.9571393E-2,-3.203915E-1,-8.454962E-1,1.3993497E-1],"categories":[],"categories_nodes":[],"categories_segments":[],"categories_sizes":[],"default_left":[true,true,true,false,true,true,true,false,false,false,false,false,false],"id":12,"left_children":[1,3,5,-1,7,9,11,-1,-1,-1,-1,-1,-1],"loss_changes":[2.5594917E2,1.7126025E2,2.3706003E2,0E0,3.1722954E1,4.9243427E2,3.2812152E2,0E0,0E0,0E0,0E0,0E0,0E0],"parents":[2147483647,0,0,1,1,2,2,4,4,5,5,6,6],"right_children":[2,4,6,-1,8,10,12,-1,-1,-1,-1,-1,-1],"split_conditions":[1.8030946E-3,5E-1,3.7940952E-1,-1.6209994E-1,-6.573704E-1,-8.87569E-2,-9.7873104E-1,1.708986E-1,-1.3162456E-1,5.957139E-3,-3.203915E-2,-8.454962E-2,1.3993497E-2],"split_indices":[12,15,0,0,3,8,4,0,0,0,0,0,0],"split_type":[0,0,0,0,0,0,0,0,0,0,0,0,0],"sum_hessian":[2.1915545E4,1.7816364E2,2.173738E4,1.5469084E2,2.3472795E1,1.3686727E4,8.050655E3,2.0092674E1,3.3801217E0,7.235049E3,6.451678E3,3.5241562E2,7.6982393E3],"tree_param":{"num_deleted":"0","num_feature":"39","num_nodes":"13","size_leaf_vector":"0"}},{"base_weights":[-4.4463404E-2,-1.4551498E-2,-4.0232292E-1,9.627029E-3,-5.1510453E-1,-1.18392E0,-2.7629384E-1,-9.974418E-2,1.3056615E-1,-1.2226533E-1,-1.1815732E0,-2.7706156E-2,-1.5125885E0,-4.9576035E-1,2.4470714E-1],"categories":[],"categories_nodes":[],"categories_segments":[],"categories_sizes":[],"default_left":[true,true,true,true,true,true,true,false,false,false,false,false,false,false,false],"id":13,"left_children":[1,3,5,7,9,11,13,-1,-1,-1,-1,-1,-1,-1,-1],"loss_changes":[2.3423672E2,2.4443137E2,1.659458E2,2.5485623E2,2.4350418E2,8.891162E1,1.664779E2,0E0,0E0,0E0,0E0,0E0,0E0,0E0,0E0],"parents":[2147483647,0,0,1,1,2,2,3,3,4,4,5,5,6,6],"right_children":[2,4,6,8,10,12,14,-1,-1,-1,-1,-1,-1,-1,-1],"split_conditions":[5E-1,5E-1,-8.1971E-1,8.167337E-2,5.0389305E-2,-9.2425644E-1,7.512816E-3,-9.974418E-3,1.3056615E-2,-1.2226533E-2,-1.1815732E-1,-2.7706155E-3,-1.5125886E-1,-4.9576037E-2,2.4470715E-2],"split_indices":[27,20,2,5,3,4,13,0,0,0,0,0,0,0,0],"split_type":[0,0,0,0,0,0,0,0,0,0,0,0,0,0,0],"sum_hessian":[2.1882115E4,2.0195133E4,1.6869818E3,1.926552E4,9.296137E2,2.330815E2,1.4539004E3,1.0116681E4,9.148838E3,5.856156E2,3.4399814E2,5.183097E1,1.8125052E2,1.02301416E3,4.3088614E2],"tree_param":{"num_deleted":"0","num_feature":"39","num_nodes":"15","size_leaf_vector":"0"}},{"base_weights":[-4.0141664E-2,-5.7540398E-2,5.459656E-1,-2.6233944E-1,1.1372419E-2,8.742885E-1,-6.888964E-1,1.3236976E-1,-4.3502897E-1,9.301996E-1,-8.585423E-3,1.3009572E0,1.1617014E-1,-1.8236098E0,5.9389293E-1],"categories":[],"categories_nodes":[],"categories_segments":[],"categories_sizes":[],"default_left":[true,true,true,true,true,true,true,false,false,false,false,false,false,false,false],"id":14,"left_children":[1,3,5,7,9,11,13,-1,-1,-1,-1,-1,-1,-1,-1],"loss_changes":[2.228989E2,2.9956998E2,2.5609198E2,3.6432385E2,2.9126343E2,1.6101505E2,1.945547E2,0E0,0E0,0E0,0E0,0E0,0E0,0E0,0E0],"parents":[2147483647,0,0,1,1,2,2,3,3,4,4,5,5,6,6],"right_children":[2,4,6,8,10,12,14,-1,-1,-1,-1,-1,-1,-1,-1],"split_conditions":[5E-1,9.453125E-3,1.4221286E-2,-6.854321E-1,9.625515E-3,-5.058416E-2,7.171922E-1,1.3236976E-2,-4.3502897E-2,9.301996E-2,-8.5854233E-4,1.3009572E-1,1.1617014E-2,-1.8236099E-1,5.9389293E-2],"split_indices":[16,12,12,3,12,2,8,0,0,0,0,0,0,0,0],"split_type":[0,0,0,0,0,0,0,0,0,0,0,0,0,0,0],"sum_hessian":[2.185406E4,2.1224896E4,6.291642E2,5.3431147E3,1.5881781E4,4.9724863E2,1.3191557E2,1.6262642E3,3.7168506E3,3.3666476E2,1.5545116E4,3.1771994E2,1.7952869E2,6.977409E1,6.214147E1],"tree_param":{"num_deleted":"0","num_feature":"39","num_nodes":"15","size_leaf_vector":"0"}},{"base_weights":[-3.6184657E-2,-1.1514462E0,-2.7424674E-2,-1.5127136E0,1.1307842E0,-6.608346E-2,2.1187495E-1,1.5623361E0,-1.220414E0,5.3698815E-2,-1.9231683E-1,3.5525182E-1,-1.8202233E-1],"categories":[],"categories_nodes":[],"categories_segments":[],"categories_sizes":[],"default_left":[true,true,true,false,true,true,true,false,false,false,false,false,false],"id":15,"left_children":[1,3,5,-1,7,9,11,-1,-1,-1,-1,-1,-1],"loss_changes":[2.1329872E2,1.4200072E2,2.004545E2,0E0,2.6081837E1,2.820706E2,1.7026483E2,0E0,0E0,0E0,0E0,0E0,0E0],"parents":[2147483647,0,0,1,1,2,2,4,4,5,5,6,6],"right_children":[2,4,6,-1,8,10,12,-1,-1,-1,-1,-1,-1],"split_conditions":[1.8030946E-3,5E-1,9.159756E-1,-1.5127136E-1,-6.573704E-1,-8.87569E-2,9.829629E-1,1.5623361E-1,-1.22041404E-1,5.3698816E-3,-1.9231683E-2,3.5525184E-2,-1.8202234E-2],"split_indices":[12,15,0,0,3,8,0,0,0,0,0,0,0],"split_type":[0,0,0,0,0,0,0,0,0,0,0,0,0],"sum_hessian":[2.1834977E4,1.6915274E2,2.1665822E4,1.4632698E2,2.282576E1,1.8653137E4,3.0126853E3,1.9569399E1,3.2563605E0,9.571428E3,9.08171E3,2.2087927E3,8.038926E2],"tree_param":{"num_deleted":"0","num_feature":"39","num_nodes":"13","size_leaf_vector":"0"}},{"base_weights":[-3.2640688E-2,-1.5234555E-1,4.0884785E-2,-8.1735694E-1,-1.0754681E-1,-2.925638E-2,2.3959841E-1,1.4944558E-1,-1.1120845E0,-6.322859E-2,-7.153382E-1,7.9186656E-2,-2.4190612E-1,3.653275E-1,-3.5959673E-1],"categories":[],"categories_nodes":[],"categories_segments":[],"categories_sizes":[],"default_left":[true,true,true,true,true,true,true,false,false,false,false,false,false,false,false],"id":16,"left_children":[1,3,5,7,9,11,13,-1,-1,-1,-1,-1,-1,-1,-1],"loss_changes":[1.9192798E2,2.4710902E2,1.8830125E2,1.4934421E2,2.0938348E2,2.3029669E2,2.656586E2,0E0,0E0,0E0,0E0,0E0,0E0,0E0,0E0],"parents":[2147483647,0,0,1,1,2,2,3,3,4,4,5,5,6,6],"right_children":[2,4,6,8,10,12,14,-1,-1,-1,-1,-1,-1,-1,-1],"split_conditions":[-3.7940952E-1,1.5671414E-3,6.830127E-1,-9.08784E-1,5E-1,-8.87569E-2,9.159756E-1,1.4944558E-2,-1.11208454E-1,-6.3228593E-3,-7.153382E-2,7.918666E-3,-2.4190612E-2,3.6532752E-2,-3.5959672E-2],"split_indices":[0,13,10,5,27,8,1,0,0,0,0,0,0,0,0],"split_type":[0,0,0,0,0,0,0,0,0,0,0,0,0,0,0],"sum_hessian":[2.180493E4,8.296518E3,1.3508411E4,5.225356E2,7.773982E3,9.984851E3,3.523561E3,1.2219362E2,4.0034195E2,7.246681E3,5.273009E2,6.613071E3,3.3717793E3,2.9127659E3,6.1079517E2],"tree_param":{"num_deleted":"0","num_feature":"39","num_nodes":"15","size_leaf_vector":"0"}},{"base_weights":[-2.9514398E-2,-1.0913064E0,-2.1598615E-2,-1.4381516E0,1.0500672E0,-3.7635915E-2,5.1931655E-1,1.4582051E0,-1.1594867E0,-1.9959398E-1,1.5527964E-2,8.245131E-1,-6.3320524E-1],"categories":[],"categories_nodes":[],"categories_segments":[],"categories_sizes":[],"default_left":[true,true,true,false,true,true,true,false,false,false,false,false,false],"id":17,"left_children":[1,3,5,-1,7,9,11,-1,-1,-1,-1,-1,-1],"loss_changes":[1.8284705E2,1.2107762E2,1.8737474E2,0E0,2.244888E1,1.8061855E2,2.1929544E2,0E0,0E0,0E0,0E0,0E0,0E0],"parents":[2147483647,0,0,1,1,2,2,4,4,5,5,6,6],"right_children":[2,4,6,-1,8,10,12,-1,-1,-1,-1,-1,-1],"split_conditions":[1.8030946E-3,5E-1,5E-1,-1.4381516E-1,-6.573704E-1,9.484522E-3,1.4221286E-2,1.4582051E-1,-1.1594867E-1,-1.9959398E-2,1.5527963E-3,8.245131E-2,-6.3320525E-2],"split_indices":[12,15,16,0,3,12,12,0,0,0,0,0,0],"split_type":[0,0,0,0,0,0,0,0,0,0,0,0,0],"sum_hessian":[2.1756578E4,1.5998479E2,2.1596594E4,1.3796632E2,2.2018456E1,2.0975629E4,6.2096466E2,1.887247E1,3.1459851E0,5.183104E3,1.5792524E4,4.9118082E2,1.2978383E2],"tree_param":{"num_deleted":"0","num_feature":"39","num_nodes":"13","size_leaf_vector":"0"}},{"base_weights":[-2.6622575E-2,-8.863799E-2,1.05630554E-1,-1.24974936E-1,5.889703E-1,4.0255597E-1,-9.5884986E-2,-1.0131636E-1,-1.0031267E0,-1.73077E0,6.9139236E-1,4.435636E-1,-1.8567835E0,-5.0654635E-2,-1.9267497E0],"categories":[],"categories_nodes":[],"categories_segments":[],"categories_sizes":[],"default_left":[true,true,true,true,true,true,true,false,false,false,false,false,false,false,false],"id":18,"left_children":[1,3,5,7,9,11,13,-1,-1,-1,-1,-1,-1,-1,-1],"loss_changes":[1.7827301E2,3.644109E2,4.152209E2,2.916908E2,1.8017227E2,2.6075204E2,3.4226602E2,0E0,0E0,0E0,0E0,0E0,0E0,0E0,0E0],"parents":[2147483647,0,0,1,1,2,2,3,3,4,4,5,5,6,6],"right_children":[2,4,6,8,10,12,14,-1,-1,-1,-1,-1,-1,-1,-1],"split_conditions":[5.197246E-1,9.9359244E-1,7.7756834E-1,5E-1,-9.330127E-1,5E-1,5E-1,-1.0131637E-2,-1.0031267E-1,-1.73077E-1,6.9139235E-2,4.435636E-2,-1.8567835E-1,-5.0654635E-3,-1.9267498E-1],"split_indices":[5,2,5,33,10,18,28,0,0,0,0,0,0,0,0],"split_type":[0,0,0,0,0,0,0,0,0,0,0,0,0,0,0],"sum_hessian":[2.1733875E4,1.4796099E4,6.937777E3,1.4043812E4,7.5228784E2,2.8044822E3,4.1332944E3,1.3676465E4,3.6734665E2,3.1138514E1,7.2114935E2,2.7552769E3,4.9205368E1,4.0346487E3,9.864576E1],"tree_param":{"num_deleted":"0","num_feature":"39","num_nodes":"15","size_leaf_vector":"0"}},{"base_weights":[-2.4034644E-2,-5.1623858E-3,-4.499932E-1,-6.253695E-2,1.595877E-1,-9.7812444E-2,-1.0572487E0,5.836093E-2,-3.145521E-1,3.6726084E-1,-8.125683E-2,-1.1417327E0,3.8864428E-1,-8.5794136E-2,-1.7328236E0],"categories":[],"categories_nodes":[],"categories_segments":[],"categories_sizes":[],"default_left":[true,true,true,true,true,true,true,false,false,false,false,false,false,false,false],"id":19,"left_children":[1,3,5,7,9,11,13,-1,-1,-1,-1,-1,-1,-1,-1],"loss_changes":[1.7461897E2,1.9663765E2,1.969875E2,4.7012244E2,2.6878833E2,2.972111E2,2.2179572E2,0E0,0E0,0E0,0E0,0E0,0E0,0E0,0E0],"parents":[2147483647,0,0,1,1,2,2,3,3,4,4,5,5,6,6],"right_children":[2,4,6,8,10,12,14,-1,-1,-1,-1,-1,-1,-1,-1],"split_conditions":[5E-1,6.830127E-1,5.0389305E-2,-8.87569E-2,9.22631E-1,1.2940952E-1,-6.830127E-1,5.8360933E-3,-3.145521E-2,3.6726084E-2,-8.125683E-3,-1.1417327E-1,3.886443E-2,-8.579413E-3,-1.7328237E-1],"split_indices":[20,10,3,8,4,1,10,0,0,0,0,0,0,0,0],"split_type":[0,0,0,0,0,0,0,0,0,0,0,0,0,0,0],"sum_hessian":[2.172131E4,2.0800738E4,9.205726E2,1.5428389E4,5.3723486E3,5.833924E2,3.3718018E2,1.0427046E4,5.001343E3,2.884556E3,2.4877927E3,1.8501317E2,3.9837924E2,1.3876608E2,1.9841408E2],"tree_param":{"num_deleted":"0","num_feature":"39","num_nodes":"15","size_leaf_vector":"0"}},{"base_weights":[-2.170755E-2,-1.0454891E0,-1.4543104E-2,-1.3738886E0,9.6015906E-1,-4.8575576E-2,1.9600825E-1,1.3521658E0,-1.1073787E0,-2.2783682E-1,1.4478784E-2,1.2778565E-1,1.0611424E0],"categories":[],"categories_nodes":[],"categories_segments":[],"categories_sizes":[],"default_left":[true,true,true,false,true,true,true,false,false,false,false,false,false],"id":20,"left_children":[1,3,5,-1,7,9,11,-1,-1,-1,-1,-1,-1],"loss_changes":[1.5916624E2,1.0064583E2,1.5444456E2,0E0,1.9171267E1,2.0972574E2,1.7687555E2,0E0,0E0,0E0,0E0,0E0,0E0],"parents":[2147483647,0,0,1,1,2,2,4,4,5,5,6,6],"right_children":[2,4,6,-1,8,10,12,-1,-1,-1,-1,-1,-1],"split_conditions":[1.8030946E-3,5E-1,9.159756E-1,-1.3738887E-1,-6.573704E-1,3.6489763E-3,5E-1,1.3521658E-1,-1.10737875E-1,-2.2783682E-2,1.4478784E-3,1.2778565E-2,1.06114246E-1],"split_indices":[12,15,0,0,3,13,14,0,0,0,0,0,0],"split_type":[0,0,0,0,0,0,0,0,0,0,0,0,0],"sum_hessian":[2.1701135E4,1.4980252E2,2.1551334E4,1.2899603E2,2.0806482E1,1.8553248E4,2.9980854E3,1.7781162E1,3.02532E0,4.827169E3,1.3726079E4,2.7800078E3,2.1807768E2],"tree_param":{"num_deleted":"0","num_feature":"39","num_nodes":"13","size_leaf_vector":"0"}},{"base_weights":[-1.9585447E-2,4.2224447E-3,-3.124182E-1,6.8795145E-2,-1.3849379E-1,-1.3220785E0,-2.1967803E-1,9.267876E-2,-7.1391857E-1,-1.6304923E0,-1.12956144E-1,-1.0525075E0,-9.669037E-2],"categories":[],"categories_nodes":[],"categories_segments":[],"categories_sizes":[],"default_left":[true,true,true,true,true,false,true,false,false,false,false,false,false],"id":21,"left_children":[1,3,5,7,9,-1,11,-1,-1,-1,-1,-1,-1],"loss_changes":[1.5110876E2,1.8474149E2,1.5230666E2,2.5807883E2,2.377544E2,0E0,1.529032E2,0E0,0E0,0E0,0E0,0E0,0E0],"parents":[2147483647,0,0,1,1,2,2,3,3,4,4,6,6],"right_children":[2,4,6,8,10,-1,12,-1,-1,-1,-1,-1,-1],"split_conditions":[5E-1,6.035534E-1,-9.159756E-1,1.8762302E-2,-9.9628896E-1,-1.3220786E-1,-8.1971E-1,9.267877E-3,-7.139186E-2,-1.6304924E-1,-1.1295615E-2,-1.0525075E-1,-9.669038E-3],"split_indices":[27,1,0,13,4,0,2,0,0,0,0,0,0],"split_type":[0,0,0,0,0,0,0,0,0,0,0,0,0],"sum_hessian":[2.167331E4,2.0044627E4,1.6286831E3,1.380087E4,6.2437573E3,1.3589886E2,1.4927842E3,1.3393077E4,4.077929E2,1.040146E2,6.1397427E3,1.9110823E2,1.301676E3],"tree_param":{"num_deleted":"0","num_feature":"39","num_nodes":"13","size_leaf_vector":"0"}},{"base_weights":[-1.7741594E-2,-8.899579E-1,-9.806879E-3,-1.6803902E0,1.4849417E0,-1.1960272E-1,5.7245843E-2,-1.4443098E0,-1.8103727E0,2.0595756E0,-1.4875219E0,-1.4690796E0,-1.02657E-1,6.8597645E-1,3.681599E-2],"categories":[],"categories_nodes":[],"categories_segments":[],"categories_sizes":[],"default_left":[true,true,true,true,true,true,true,false,false,false,false,false,false,false,false],"id":22,"left_children":[1,3,5,7,9,11,13,-1,-1,-1,-1,-1,-1,-1,-1],"loss_changes":[1.4976207E2,3.6870587E2,1.5789928E2,1.8911438E0,8.718017E1,1.8580794E2,1.710138E2,0E0,0E0,0E0,0E0,0E0,0E0,0E0,0E0],"parents":[2147483647,0,0,1,1,2,2,3,3,4,4,5,5,6,6],"right_children":[2,4,6,8,10,12,14,-1,-1,-1,-1,-1,-1,-1,-1],"split_conditions":[4.1977133E-4,5E-1,-3.7940952E-1,-3.7940952E-1,-6.078576E-1,7.5450516E-4,7.354185E-4,-1.4443098E-1,-1.8103728E-1,2.0595756E-1,-1.487522E-1,-1.4690797E-1,-1.02657E-2,6.8597645E-2,3.681599E-3],"split_indices":[13,33,0,0,6,13,13,0,0,0,0,0,0,0,0],"split_type":[0,0,0,0,0,0,0,0,0,0,0,0,0,0,0],"sum_hessian":[2.1639713E4,1.9408368E2,2.1445629E4,1.4583739E2,4.8246284E1,8.130885E3,1.3314744E4,5.6084885E1,8.975251E1,4.068769E1,7.5585923E0,9.9772606E1,8.031112E3,4.180056E2,1.2896738E4],"tree_param":{"num_deleted":"0","num_feature":"39","num_nodes":"15","size_leaf_vector":"0"}},{"base_weights":[-1.6046295E-2,-3.0324088E-2,4.6514687E-1,-1.9146405E-1,2.3116656E-2,7.8074646E-1,-4.674765E-1,1.0418577E-2,-4.663215E-1,8.3593756E-1,5.4096594E-3,9.266938E-1,-1.8959587E0,1.2644483E0,-1.2603309E0],"categories":[],"categories_nodes":[],"categories_segments":[],"categories_sizes":[],"default_left":[true,true,true,true,true,true,true,false,false,false,false,false,false,false,false],"id":23,"left_children":[1,3,5,7,9,11,13,-1,-1,-1,-1,-1,-1,-1,-1],"loss_changes":[1.4854216E2,1.808152E2,1.837468E2,2.9017038E2,2.2694302E2,1.8375787E2,2.1876436E2,0E0,0E0,0E0,0E0,0E0,0E0,0E0,0E0],"parents":[2147483647,0,0,1,1,2,2,3,3,4,4,5,5,6,6],"right_children":[2,4,6,8,10,12,14,-1,-1,-1,-1,-1,-1,-1,-1],"split_conditions":[5E-1,9.453125E-3,2.1694186E-1,5.0389305E-2,9.625515E-3,2.16224E-2,-9.142429E-1,1.0418578E-3,-4.6632152E-2,8.3593756E-2,5.4096594E-4,9.266938E-2,-1.8959586E-1,1.2644483E-1,-1.260331E-1],"split_indices":[16,12,6,3,12,13,3,0,0,0,0,0,0,0,0],"split_type":[0,0,0,0,0,0,0,0,0,0,0,0,0,0,0],"sum_hessian":[2.1617617E4,2.0995582E4,6.220365E2,5.2282495E3,1.5767332E4,4.64883E2,1.571535E2,3.0148245E3,2.2134248E3,3.35177E2,1.5432155E4,4.4146588E2,2.3417128E1,4.9164005E1,1.079895E2],"tree_param":{"num_deleted":"0","num_feature":"39","num_nodes":"15","size_leaf_vector":"0"}},{"base_weights":[-1.447402E-2,2.817148E-3,-4.0654996E-1,-4.8081905E-2,1.4873138E-1,-1.9932719E-1,-1.3048383E0,6.1951265E-2,-2.784293E-1,3.3670637E-1,-6.958209E-2,1.599125E-1,-8.236746E-1,1.6339068E0,-1.732669E0],"categories":[],"categories_nodes":[],"categories_segments":[],"categories_sizes":[],"default_left":[true,true,true,true,true,true,true,false,false,false,false,false,false,false,false],"id":24,"left_children":[1,3,5,7,9,11,13,-1,-1,-1,-1,-1,-1,-1,-1],"loss_changes":[1.4642249E2,1.5364397E2,1.6955559E2,3.8875748E2,2.1957858E2,1.6665645E2,2.1760147E2,0E0,0E0,0E0,0E0,0E0,0E0,0E0,0E0],"parents":[2147483647,0,0,1,1,2,2,3,3,4,4,5,5,6,6],"right_children":[2,4,6,8,10,12,14,-1,-1,-1,-1,-1,-1,-1,-1],"split_conditions":[5E-1,6.830127E-1,7.171922E-1,-8.87569E-2,9.22631E-1,5.0389305E-2,5.306814E-4,6.1951266E-3,-2.784293E-2,3.3670638E-2,-6.958209E-3,1.599125E-2,-8.2367465E-2,1.6339068E-1,-1.732669E-1],"split_indices":[20,10,8,8,4,3,13,0,0,0,0,0,0,0,0],"split_type":[0,0,0,0,0,0,0,0,0,0,0,0,0,0,0],"sum_hessian":[2.1596816E4,2.0685543E4,9.1127234E2,1.533643E4,5.349114E3,7.4145154E2,1.6982079E2,1.0379191E4,4.9572383E3,2.873981E3,2.475133E3,4.7112024E2,2.703313E2,2.1222889E1,1.485979E2],"tree_param":{"num_deleted":"0","num_feature":"39","num_nodes":"15","size_leaf_vector":"0"}},{"base_weights":[-1.308529E-2,-9.9386746E-1,-6.745364E-3,-1.3147099E0,9.0467775E-1,-2.184768E-2,3.8657957E-1,1.2788596E0,-1.0492147E0,3.831832E-2,-1.5437543E-1,-1.8103182E0,5.504539E-1],"categories":[],"categories_nodes":[],"categories_segments":[],"categories_sizes":[],"default_left":[true,true,true,false,true,true,true,false,false,false,false,false,false],"id":25,"left_children":[1,3,5,-1,7,9,11,-1,-1,-1,-1,-1,-1],"loss_changes":[1.3413812E2,8.55854E1,1.2733949E2,0E0,1.6418604E1,1.6461504E2,2.86373E2,0E0,0E0,0E0,0E0,0E0,0E0],"parents":[2147483647,0,0,1,1,2,2,4,4,5,5,6,6],"right_children":[2,4,6,-1,8,10,12,-1,-1,-1,-1,-1,-1],"split_conditions":[1.8030946E-3,5E-1,5E-1,-1.31471E-1,-6.573704E-1,6.035534E-1,4.0848106E-3,1.2788597E-1,-1.04921475E-1,3.8318322E-3,-1.5437543E-2,-1.8103182E-1,5.5045392E-2],"split_indices":[12,15,37,0,3,1,13,0,0,0,0,0,0],"split_type":[0,0,0,0,0,0,0,0,0,0,0,0,0],"sum_hessian":[2.157233E4,1.3755081E2,2.143478E4,1.17929054E2,1.9621769E1,2.06431E4,7.9167914E2,1.6757996E1,2.8637736E0,1.41980625E4,6.445038E3,5.425744E1,7.374217E2],"tree_param":{"num_deleted":"0","num_feature":"39","num_nodes":"13","size_leaf_vector":"0"}},{"base_weights":[-1.1837806E-2,-8.2248557E-1,-4.6911286E-3,-1.576996E0,1.3344897E0,-1.0440477E-1,5.6072418E-2,-1.4303341E0,-1.7216632E0,1.8391916E0,-1.3992256E0,-1.3838275E-1,5.206697E-1,1.4255011E-1,-6.9584236E-2],"categories":[],"categories_nodes":[],"categories_segments":[],"categories_sizes":[],"default_left":[true,true,true,true,true,true,true,false,false,false,false,false,false,false,false],"id":26,"left_children":[1,3,5,7,9,11,13,-1,-1,-1,-1,-1,-1,-1,-1],"loss_changes":[1.24830315E2,3.0855072E2,1.2942642E2,5.06958E-1,7.064673E1,1.7185635E2,1.4424063E2,0E0,0E0,0E0,0E0,0E0,0E0,0E0,0E0],"parents":[2147483647,0,0,1,1,2,2,3,3,4,4,5,5,6,6],"right_children":[2,4,6,8,10,12,14,-1,-1,-1,-1,-1,-1,-1,-1],"split_conditions":[4.1977133E-4,5E-1,-3.7940952E-1,6.123234E-17,-6.078576E-1,9.9359244E-1,1.4612704E-2,-1.4303342E-1,-1.7216633E-1,1.8391916E-1,-1.3992256E-1,-1.3838275E-2,5.206697E-2,1.4255011E-2,-6.9584236E-3],"split_indices":[13,33,0,0,6,2,12,0,0,0,0,0,0,0,0],"split_type":[0,0,0,0,0,0,0,0,0,0,0,0,0,0,0],"sum_hessian":[2.1546514E4,1.8729723E2,2.1359217E4,1.3895842E2,4.83388E1,8.087243E3,1.3271973E4,7.440978E1,6.454864E1,4.10815E1,7.2572985E0,7.671037E3,4.1620587E2,7.861503E3,5.4104697E3],"tree_param":{"num_deleted":"0","num_feature":"39","num_nodes":"15","size_leaf_vector":"0"}},{"base_weights":[-1.0706335E-2,9.210522E-3,-2.968114E-1,-6.2153655E-1,2.1648549E-2,3.9906356E-2,-7.744091E-1,-9.349428E-1,1.6329224E0,-1.2638937E-1,7.0921235E-2,-5.928751E-1,3.2742077E-1,-1.07040085E-1,-1.5388033E0],"categories":[],"categories_nodes":[],"categories_segments":[],"categories_sizes":[],"default_left":[true,true,true,true,true,true,true,false,false,false,false,false,false,false,false],"id":27,"left_children":[1,3,5,7,9,11,13,-1,-1,-1,-1,-1,-1,-1,-1],"loss_changes":[1.22680855E2,1.5792773E2,2.2536482E2,2.7658054E2,1.4399968E2,1.4988094E2,2.9542676E2,0E0,0E0,0E0,0E0,0E0,0E0,0E0,0E0],"parents":[2147483647,0,0,1,1,2,2,3,3,4,4,5,5,6,6],"right_children":[2,4,6,8,10,12,14,-1,-1,-1,-1,-1,-1,-1,-1],"split_conditions":[5E-1,-9.9759334E-1,3.0120026E-2,5E-1,-6.830127E-1,4.374316E-3,5.3579574E-3,-9.349428E-2,1.6329224E-1,-1.2638937E-2,7.0921234E-3,-5.9287515E-2,3.274208E-2,-1.0704009E-2,-1.5388034E-1],"split_indices":[24,5,4,14,10,13,13,0,0,0,0,0,0,0,0],"split_type":[0,0,0,0,0,0,0,0,0,0,0,0,0,0,0],"sum_hessian":[2.1527846E4,2.0127652E4,1.4001942E3,3.882851E2,1.9739367E4,8.217543E2,5.7843994E2,3.4140903E2,4.6876076E1,4.928952E3,1.4810415E4,2.563967E2,5.653576E2,3.0942798E2,2.6901196E2],"tree_param":{"num_deleted":"0","num_feature":"39","num_nodes":"15","size_leaf_vector":"0"}},{"base_weights":[-9.692967E-3,1.1423345E-2,-2.731363E-1,2.913886E-2,-3.6289388E-1,-3.250487E-1,1.4297001E0,-6.732946E-1,4.4455796E-2,-1.2335341E0,-1.5746124E-1,1.158433E0,-3.8139144E-1,1.8487214E0,-1.3909653E0],"categories":[],"categories_nodes":[],"categories_segments":[],"categories_sizes":[],"default_left":[true,true,true,true,true,true,true,false,false,false,false,false,false,false,false],"id":28,"left_children":[1,3,5,7,9,11,13,-1,-1,-1,-1,-1,-1,-1,-1],"loss_changes":[1.1969294E2,1.3210376E2,1.4160532E2,2.0467557E2,1.6081927E2,1.3001465E2,5.8618385E1,0E0,0E0,0E0,0E0,0E0,0E0,0E0,0E0],"parents":[2147483647,0,0,1,1,2,2,3,3,4,4,5,5,6,6],"right_children":[2,4,6,8,10,12,14,-1,-1,-1,-1,-1,-1,-1,-1],"split_conditions":[5E-1,5E-1,2.230028E-2,6.7925313E-4,9.544112E-3,-9.986576E-1,-5.2625006E-1,-6.732946E-2,4.44558E-3,-1.23353414E-1,-1.5746124E-2,1.15843296E-1,-3.8139146E-2,1.8487214E-1,-1.3909654E-1],"split_indices":[27,20,12,13,12,4,3,0,0,0,0,0,0,0,0],"split_type":[0,0,0,0,0,0,0,0,0,0,0,0,0,0,0],"sum_hessian":[2.1514525E4,1.9918883E4,1.5956423E3,1.9019652E4,8.992312E2,1.549222E3,4.642025E1,4.0496646E2,1.8614686E4,1.7071646E2,7.285148E2,5.597086E1,1.4932512E3,4.0716263E1,5.7039857E0],"tree_param":{"num_deleted":"0","num_feature":"39","num_nodes":"15","size_leaf_vector":"0"}},{"base_weights":[-8.773169E-3,-9.6182066E-1,-3.065907E-3,-1.273333E0,8.470898E-1,-1.5948089E-2,4.334466E-1,-1.0811031E0,1.2072492E0,-2.796019E-1,9.460601E-3,7.029283E-1,-5.9532386E-1],"categories":[],"categories_nodes":[],"categories_segments":[],"categories_sizes":[],"default_left":[true,true,true,false,true,true,true,false,false,false,false,false,false],"id":29,"left_children":[1,3,5,-1,7,9,11,-1,-1,-1,-1,-1,-1],"loss_changes":[1.169097E2,7.317624E1,1.2015937E2,0E0,1.4775672E1,1.3904651E2,1.7023538E2,0E0,0E0,0E0,0E0,0E0,0E0],"parents":[2147483647,0,0,1,1,2,2,4,4,5,5,6,6],"right_children":[2,4,6,-1,8,10,12,-1,-1,-1,-1,-1,-1],"split_conditions":[1.8030946E-3,5E-1,5E-1,-1.273333E-1,6.830127E-1,-9.529146E-1,1.4221286E-2,-1.0811031E-1,1.2072492E-1,-2.796019E-2,9.460601E-4,7.029283E-2,-5.9532385E-2],"split_indices":[12,15,16,0,11,2,12,0,0,0,0,0,0],"split_type":[0,0,0,0,0,0,0,0,0,0,0,0,0],"sum_hessian":[2.1493094E4,1.2694654E2,2.1366146E4,1.0854935E2,1.8397196E1,2.075461E4,6.115382E2,2.580449E0,1.5816747E1,1.8234575E3,1.893115E4,4.8485056E2,1.2668765E2],"tree_param":{"num_deleted":"0","num_feature":"39","num_nodes":"13","size_leaf_vector":"0"}},{"base_weights":[-7.926923E-3,-2.1604836E-2,3.4860364E-1,-1.9217595E-1,1.990702E-2,4.8441148E-1,-1.8601238E0,9.567811E-2,-5.122451E-1,1.7416832E-1,-7.493052E-2,-1.6781144E0,6.3219106E-1],"categories":[],"categories_nodes":[],"categories_segments":[],"categories_sizes":[],"default_left":[true,true,true,true,true,true,false,false,false,false,false,false,false],"id":30,"left_children":[1,3,5,7,9,11,-1,-1,-1,-1,-1,-1,-1],"loss_changes":[1.04743484E2,1.4646654E2,2.3894202E2,3.730775E2,2.4340714E2,2.402307E2,0E0,0E0,0E0,0E0,0E0,0E0,0E0],"parents":[2147483647,0,0,1,1,2,2,3,3,4,4,5,5],"right_children":[2,4,6,8,10,12,-1,-1,-1,-1,-1,-1,-1],"split_conditions":[5E-1,-8.039205E-1,9.291328E-1,1.2881592E-2,-8.87569E-2,4.0848106E-3,-1.8601237E-1,9.567811E-3,-5.122451E-2,1.7416833E-2,-7.493052E-3,-1.6781144E-1,6.321911E-2],"split_indices":[37,4,4,12,8,13,0,0,0,0,0,0,0],"split_type":[0,0,0,0,0,0,0,0,0,0,0,0,0],"sum_hessian":[2.1476277E4,2.0683709E4,7.92569E2,4.0477952E3,1.6635914E4,7.4739465E2,4.517431E1,2.1315173E3,1.9162781E3,6.3333486E3,1.0302564E4,4.714499E1,7.0024963E2],"tree_param":{"num_deleted":"0","num_feature":"39","num_nodes":"13","size_leaf_vector":"0"}},{"base_weights":[-7.1769836E-3,-1.9748196E-1,1.908595E-2,-1.2582247E-1,-1.6803515E0,9.590547E-1,-1.256391E-3,-1.3085071E0,-2.3731796E-2,1.2099506E0,-1.7950715E0,5.8026038E-2,-1.3421014E-1],"categories":[],"categories_nodes":[],"categories_segments":[],"categories_sizes":[],"default_left":[true,true,true,true,false,true,true,false,false,false,false,false,false],"id":31,"left_children":[1,3,5,7,-1,9,11,-1,-1,-1,-1,-1,-1],"loss_changes":[1.0728761E2,2.7640723E2,3.606897E2,2.999217E2,0E0,2.7828427E2,1.4554347E2,0E0,0E0,0E0,0E0,0E0,0E0],"parents":[2147483647,0,0,1,1,2,2,3,3,5,5,6,6],"right_children":[2,4,6,8,-1,10,12,-1,-1,-1,-1,-1,-1],"split_conditions":[-9.29107E-1,3.2125777E-1,-9.158304E-1,-9.529146E-1,-1.6803515E-1,8.5614305E-3,6.035534E-1,-1.3085072E-1,-2.3731797E-3,1.2099506E-1,-1.7950715E-1,5.802604E-3,-1.3421014E-2],"split_indices":[5,4,5,2,0,13,1,0,0,0,0,0,0],"split_type":[0,0,0,0,0,0,0,0,0,0,0,0,0],"sum_hessian":[2.1464496E4,2.602183E3,1.8862312E4,2.4832646E3,1.1891862E2,3.9858423E2,1.8463729E4,1.963859E2,2.2868787E3,3.6581943E2,3.276481E1,1.2770212E4,5.6935156E3],"tree_param":{"num_deleted":"0","num_feature":"39","num_nodes":"13","size_leaf_vector":"0"}},{"base_weights":[-6.533163E-3,-9.3804175E-1,-1.3413075E-3,-1.2397692E0,7.97157E-1,4.6481514E-1,-1.2277899E-2,1.1622063E0,-9.8245573E-1,-5.4988486E-1,8.059835E-1,-1.7498492E0,-4.3199738E-3],"categories":[],"categories_nodes":[],"categories_segments":[],"categories_sizes":[],"default_left":[true,true,true,false,true,true,true,false,false,false,false,false,false],"id":32,"left_children":[1,3,5,-1,7,9,11,-1,-1,-1,-1,-1,-1],"loss_changes":[1.0370965E2,6.3217697E1,1.08732155E2,0E0,1.2975168E1,1.696936E2,2.881387E2,0E0,0E0,0E0,0E0,0E0,0E0],"parents":[2147483647,0,0,1,1,2,2,4,4,5,5,6,6],"right_children":[2,4,6,-1,8,10,12,-1,-1,-1,-1,-1,-1],"split_conditions":[1.8030946E-3,5E-1,3.0147952E-3,-1.2397692E-1,-6.573704E-1,3.7640424E-3,3.426794E-3,1.1622063E-1,-9.8245576E-2,-5.4988485E-2,8.059835E-2,-1.7498492E-1,-4.3199738E-4],"split_indices":[12,15,12,0,3,13,12,0,0,0,0,0,0],"split_type":[0,0,0,0,0,0,0,0,0,0,0,0,0],"sum_hessian":[2.1443453E4,1.1785888E2,2.1325594E4,1.0064381E2,1.721507E1,4.8790366E2,2.083769E4,1.4572722E1,2.642347E0,1.226141E2,3.6528955E2,9.400181E1,2.0743688E4],"tree_param":{"num_deleted":"0","num_feature":"39","num_nodes":"13","size_leaf_vector":"0"}},{"base_weights":[-5.9330375E-3,1.2388178E-2,-2.7019167E-1,-5.618966E-1,2.3496496E-2,2.7650125E-2,-6.972108E-1,-8.549385E-1,1.4494709E0,-4.8927676E-2,1.0086488E-1,-1.6762349E-1,9.350947E-1,-8.7739535E-2,-1.4105221E0],"categories":[],"categories_nodes":[],"categories_segments":[],"categories_sizes":[],"default_left":[true,true,true,true,true,true,true,false,false,false,false,false,false,false,false],"id":33,"left_children":[1,3,5,7,9,11,13,-1,-1,-1,-1,-1,-1,-1,-1],"loss_changes":[1.0377826E2,1.2789044E2,1.7677301E2,2.2546486E2,1.1020088E2,1.45402E2,2.481484E2,0E0,0E0,0E0,0E0,0E0,0E0,0E0,0E0],"parents":[2147483647,0,0,1,1,2,2,3,3,4,4,5,5,6,6],"right_children":[2,4,6,8,10,12,14,-1,-1,-1,-1,-1,-1,-1,-1],"split_conditions":[5E-1,-9.9759334E-1,3.0120026E-2,5E-1,1.5123342E-1,-1.5005401E-1,5.3579574E-3,-8.5493855E-2,1.449471E-1,-4.892768E-3,1.0086488E-2,-1.676235E-2,9.350947E-2,-8.773954E-3,-1.4105222E-1],"split_indices":[24,5,4,14,2,4,13,0,0,0,0,0,0,0,0],"split_type":[0,0,0,0,0,0,0,0,0,0,0,0,0,0,0],"sum_hessian":[2.1433281E4,2.0044535E4,1.388747E3,3.7942072E2,1.9665113E4,8.186686E2,5.7007837E2,3.3167325E2,4.7747482E1,1.0157291E4,9.507823E3,6.7436646E2,1.443021E2,3.080207E2,2.6205768E2],"tree_param":{"num_deleted":"0","num_feature":"39","num_nodes":"15","size_leaf_vector":"0"}},{"base_weights":[-5.390269E-3,-9.3411155E-2,4.81962E-2,-6.574494E-1,-5.837801E-2,-5.480488E-1,6.493323E-2,1.7322704E0,-7.942896E-1,-2.1381393E-2,-6.515082E-1,-8.3129364E-1,1.1673989E0,1.4869381E-1,-6.968181E-2],"categories":[],"categories_nodes":[],"categories_segments":[],"categories_sizes":[],"default_left":[true,true,true,true,true,true,true,false,false,false,false,false,false,false,false],"id":34,"left_children":[1,3,5,7,9,11,13,-1,-1,-1,-1,-1,-1,-1,-1],"loss_changes":[1.0104592E2,1.6015103E2,1.3292282E2,1.5637099E2,1.6749986E2,1.7768686E2,1.4606665E2,0E0,0E0,0E0,0E0,0E0,0E0,0E0,0E0],"parents":[2147483647,0,0,1,1,2,2,3,3,4,4,5,5,6,6],"right_children":[2,4,6,8,10,12,14,-1,-1,-1,-1,-1,-1,-1,-1],"split_conditions":[-3.7940952E-1,1.5671414E-3,-9.937374E-1,-9.9780536E-1,5E-1,2.923606E-2,1.4997434E-2,1.7322704E-1,-7.942896E-2,-2.1381394E-3,-6.515082E-2,-8.312937E-2,1.1673989E-1,1.4869382E-2,-6.968181E-3],"split_indices":[0,13,4,8,24,12,12,0,0,0,0,0,0,0,0],"split_type":[0,0,0,0,0,0,0,0,0,0,0,0,0,0,0],"sum_hessian":[2.1420928E4,8.105738E3,1.331519E4,4.7297708E2,7.6327607E3,3.6269498E2,1.2952496E4,2.4985289E1,4.4799182E2,7.1855938E3,4.4716684E2,3.11738E2,5.095698E1,7.9843467E3,4.9681494E3],"tree_param":{"num_deleted":"0","num_feature":"39","num_nodes":"15","size_leaf_vector":"0"}},{"base_weights":[-4.8988825E-3,1.4478806E-2,-2.4853112E-1,3.0171128E-2,-3.4810376E-1,-1.2640519E0,-1.637419E-1,-6.176615E-1,4.2376336E-2,-1.836189E0,5.1531047E-2,-1.0034153E-1,-1.5467687E0],"categories":[],"categories_nodes":[],"categories_segments":[],"categories_sizes":[],"default_left":[true,true,true,true,true,false,true,false,false,false,false,false,false],"id":35,"left_children":[1,3,5,7,9,-1,11,-1,-1,-1,-1,-1,-1],"loss_changes":[1.0104461E2,1.12818115E2,1.3557289E2,1.5029631E2,4.8926166E2,0E0,1.2756067E2,0E0,0E0,0E0,0E0,0E0,0E0],"parents":[2147483647,0,0,1,1,2,2,3,3,4,4,6,6],"right_children":[2,4,6,8,10,-1,12,-1,-1,-1,-1,-1,-1],"split_conditions":[5E-1,5E-1,-9.159756E-1,-9.9699193E-1,-5.2625006E-1,-1.264052E-1,9.690008E-1,-6.1766148E-2,4.2376337E-3,-1.836189E-1,5.1531047E-3,-1.0034153E-2,-1.5467687E-1],"split_indices":[27,28,0,4,3,0,4,0,0,0,0,0,0],"split_type":[0,0,0,0,0,0,0,0,0,0,0,0,0],"sum_hessian":[2.1401326E4,1.982542E4,1.5759066E3,1.9003861E4,8.215571E2,1.2036664E2,1.45554E3,3.5049603E2,1.8653365E4,1.731646E2,6.483926E2,1.3927657E3,6.2774277E1],"tree_param":{"num_deleted":"0","num_feature":"39","num_nodes":"13","size_leaf_vector":"0"}},{"base_weights":[-4.4987877E-3,-1.7818293E-2,3.3800024E-1,-2.7152696E-1,4.927764E-3,-1.4893513E-2,1.027305E0,-5.291476E-1,5.585405E-1,-1.427369E0,1.01169925E-2,5.5278605E-1,-8.107524E-1,1.2866021E0,-1.9124361E0],"categories":[],"categories_nodes":[],"categories_segments":[],"categories_sizes":[],"default_left":[true,true,true,true,true,true,true,false,false,false,false,false,false,false,false],"id":36,"left_children":[1,3,5,7,9,11,13,-1,-1,-1,-1,-1,-1,-1,-1],"loss_changes":[9.755469E1,1.18787575E2,1.9473764E2,3.6245972E2,1.4042326E2,2.4009328E2,2.0908594E2,0E0,0E0,0E0,0E0,0E0,0E0,0E0,0E0],"parents":[2147483647,0,0,1,1,2,2,3,3,4,4,5,5,6,6],"right_children":[2,4,6,8,10,12,14,-1,-1,-1,-1,-1,-1,-1,-1],"split_conditions":[5E-1,-9.622734E-1,1.6840838E-2,8.117449E-1,2.9407642E-4,-2.1694186E-1,6.90167E-1,-5.2914765E-2,5.5854052E-2,-1.427369E-1,1.0116993E-3,5.5278607E-2,-8.107524E-2,1.2866022E-1,-1.9124362E-1],"split_indices":[17,5,12,7,13,6,4,0,0,0,0,0,0,0,0],"split_type":[0,0,0,0,0,0,0,0,0,0,0,0,0,0,0],"sum_hessian":[2.1382258E4,2.058276E4,7.994986E2,1.6926022E3,1.8890158E4,5.294314E2,2.700672E2,1.2919833E3,4.0061884E2,6.720286E1,1.8822955E4,3.091924E2,2.2023898E2,2.4869376E2,2.1373453E1],"tree_param":{"num_deleted":"0","num_feature":"39","num_nodes":"15","size_leaf_vector":"0"}},{"base_weights":[-4.1020154E-3,9.8913275E-3,-3.2594982E-1,-3.6519106E-2,1.4251615E-1,-1.3188905E-1,-1.1918719E0,5.5506296E-2,-2.3119295E-1,7.330412E-1,7.414934E-2,-1.0621971E0,7.620428E-2,1.5170562E0,-1.6014272E0],"categories":[],"categories_nodes":[],"categories_segments":[],"categories_sizes":[],"default_left":[true,true,true,true,true,true,true,false,false,false,false,false,false,false,false],"id":37,"left_children":[1,3,5,7,9,11,13,-1,-1,-1,-1,-1,-1,-1,-1],"loss_changes":[9.623519E1,1.26050026E2,1.4945459E2,2.7178748E2,2.1426529E2,1.4110236E2,1.8313298E2,0E0,0E0,0E0,0E0,0E0,0E0,0E0,0E0],"parents":[2147483647,0,0,1,1,2,2,3,3,4,4,5,5,6,6],"right_children":[2,4,6,8,10,12,14,-1,-1,-1,-1,-1,-1,-1,-1],"split_conditions":[5E-1,6.830127E-1,7.171922E-1,-8.87569E-2,4.979863E-3,9.541705E-3,5.306814E-4,5.55063E-3,-2.3119295E-2,7.3304124E-2,7.414934E-3,-1.0621971E-1,7.6204278E-3,1.5170562E-1,-1.6014272E-1],"split_indices":[20,10,8,8,12,12,13,0,0,0,0,0,0,0,0],"split_type":[0,0,0,0,0,0,0,0,0,0,0,0,0,0,0],"sum_hessian":[2.1366186E4,2.047686E4,8.893264E2,1.516928E4,5.307579E3,7.274506E2,1.618758E2,1.0300694E4,4.868586E3,5.4970715E2,4.757872E3,1.3222359E2,5.9522705E2,2.0904259E1,1.4097153E2],"tree_param":{"num_deleted":"0","num_feature":"39","num_nodes":"15","size_leaf_vector":"0"}},{"base_weights":[-3.7435628E-3,-9.227134E-1,1.0064594E-3,-1.2136889E0,7.420966E-1,-1.018513E-2,3.8312954E-1,-1.0281782E0,1.1017451E0,-1.462156E-1,3.3982176E-2,8.728232E-1,-8.609766E-2],"categories":[],"categories_nodes":[],"categories_segments":[],"categories_sizes":[],"default_left":[true,true,true,false,true,true,true,false,false,false,false,false,false],"id":38,"left_children":[1,3,5,-1,7,9,11,-1,-1,-1,-1,-1,-1],"loss_changes":[9.318394E1,5.407728E1,9.083117E1,0E0,1.19259815E1,1.2398222E2,1.3894217E2,0E0,0E0,0E0,0E0,0E0,0E0],"parents":[2147483647,0,0,1,1,2,2,4,4,5,5,6,6],"right_children":[2,4,6,-1,8,10,12,-1,-1,-1,-1,-1,-1],"split_conditions":[1.8030946E-3,5E-1,5E-1,-1.21368885E-1,6.830127E-1,9.484522E-3,9.401774E-3,-1.02817826E-1,1.10174514E-1,-1.462156E-2,3.3982177E-3,8.728232E-2,-8.609766E-3],"split_indices":[12,15,16,0,11,12,12,0,0,0,0,0,0],"split_type":[0,0,0,0,0,0,0,0,0,0,0,0,0],"sum_hessian":[2.1346148E4,1.0877401E2,2.1237373E4,9.2821625E1,1.5952389E1,2.063402E4,6.033541E2,2.3797677E0,1.3572621E1,5.056927E3,1.5577093E4,2.9481744E2,3.085367E2],"tree_param":{"num_deleted":"0","num_feature":"39","num_nodes":"13","size_leaf_vector":"0"}},{"base_weights":[-3.3879206E-3,1.0810301E-2,-2.984163E-1,-1.07990116E-1,5.067037E-2,2.0117493E-1,-8.3531886E-1,-1.6173543E-1,7.683878E-1,1.1143629E-1,-1.6630128E-1,-2.8125113E-1,8.422116E-1,-1.115794E0,1.8474485E0],"categories":[],"categories_nodes":[],"categories_segments":[],"categories_sizes":[],"default_left":[true,true,true,true,true,true,true,false,false,false,false,false,false,false,false],"id":39,"left_children":[1,3,5,7,9,11,13,-1,-1,-1,-1,-1,-1,-1,-1],"loss_changes":[8.934439E1,9.637006E1,2.6285397E2,2.4094273E2,2.0092462E2,1.573666E2,3.573901E2,0E0,0E0,0E0,0E0,0E0,0E0,0E0,0E0],"parents":[2147483647,0,0,1,1,2,2,3,3,4,4,5,5,6,6],"right_children":[2,4,6,8,10,12,14,-1,-1,-1,-1,-1,-1,-1,-1],"split_conditions":[5E-1,9.453125E-3,-3.4552336E-1,5E-1,7.865661E-1,8.093553E-3,9.9906486E-1,-1.6173543E-2,7.6838784E-2,1.1143629E-2,-1.6630128E-2,-2.8125113E-2,8.422116E-2,-1.11579396E-1,1.8474485E-1],"split_indices":[35,12,3,16,1,13,4,0,0,0,0,0,0,0,0],"split_type":[0,0,0,0,0,0,0,0,0,0,0,0,0,0,0],"sum_hessian":[2.1327186E4,2.0348861E4,9.783242E2,5.1117886E3,1.5237072E4,5.070947E2,4.712295E2,4.817182E3,2.946061E2,1.1903748E4,3.3333235E3,2.8966345E2,2.1743126E2,4.2715576E2,4.407373E1],"tree_param":{"num_deleted":"0","num_feature":"39","num_nodes":"15","size_leaf_vector":"0"}},{"base_weights":[-3.063809E-3,-8.532585E-2,4.6900794E-2,3.6675574E-3,-2.8895903E-1,2.8242808E-2,5.1914346E-1,-2.6478896E-1,1.9974206E-1,-9.8465584E-2,-1.1709194E0,3.8041383E-2,-1.8541781E0,6.792287E-1,-1.9396926E0],"categories":[],"categories_nodes":[],"categories_segments":[],"categories_sizes":[],"default_left":[true,true,true,true,true,true,true,false,false,false,false,false,false,false,false],"id":40,"left_children":[1,3,5,7,9,11,13,-1,-1,-1,-1,-1,-1,-1,-1],"loss_changes":[8.75458E1,1.4585645E2,1.1674294E2,2.9491742E2,4.1112115E2,2.3521918E2,1.9954219E2,0E0,0E0,0E0,0E0,0E0,0E0,0E0,0E0],"parents":[2147483647,0,0,1,1,2,2,3,3,4,4,5,5,6,6],"right_children":[2,4,6,8,10,12,14,-1,-1,-1,-1,-1,-1,-1,-1],"split_conditions":[-3.7940952E-1,4.381346E-1,3.361185E-2,-1.2447466E-1,6.035534E-1,3.1906523E-2,8.8606244E-1,-2.6478896E-2,1.9974208E-2,-9.846559E-3,-1.1709195E-1,3.8041384E-3,-1.8541782E-1,6.7922875E-2,-1.9396926E-1],"split_indices":[0,3,12,5,1,12,4,0,0,0,0,0,0,0,0],"split_type":[0,0,0,0,0,0,0,0,0,0,0,0,0,0,0],"sum_hessian":[2.1297723E4,8.0475225E3,1.3250199E4,5.6007983E3,2.446724E3,1.274761E4,5.0258963E2,2.3639004E3,3.236898E3,2.0130416E3,4.3368246E2,1.2682573E4,6.503687E1,4.7254764E2,3.0041983E1],"tree_param":{"num_deleted":"0","num_feature":"39","num_nodes":"15","size_leaf_vector":"0"}},{"base_weights":[-2.845994E-3,9.151902E-3,-3.4393767E-1,-9.9130875E-1,1.4682471E-2,-1.7921417E0,-1.059768E-1,-1.64309E0,1.5294809E0,-1.715767E-3,2.839945E-1,-9.016833E-1,3.1740087E-1],"categories":[],"categories_nodes":[],"categories_segments":[],"categories_sizes":[],"default_left":[true,true,true,true,true,false,true,false,false,false,false,false,false],"id":41,"left_children":[1,3,5,7,9,-1,11,-1,-1,-1,-1,-1,-1],"loss_changes":[8.704904E1,1.1371144E2,2.4889252E2,1.881434E2,9.025284E1,0E0,2.0977522E2,0E0,0E0,0E0,0E0,0E0,0E0],"parents":[2147483647,0,0,1,1,2,2,3,3,4,4,6,6],"right_children":[2,4,6,8,10,-1,12,-1,-1,-1,-1,-1,-1],"split_conditions":[5E-1,-9.996574E-1,-7.5778425E-1,5E-1,3.0392751E-2,-1.7921416E-1,1.2940952E-1,-1.6430901E-1,1.529481E-1,-1.715767E-4,2.839945E-2,-9.016833E-2,3.1740088E-2],"split_indices":[18,4,2,19,12,0,1,0,0,0,0,0,0],"split_type":[0,0,0,0,0,0,0,0,0,0,0,0,0],"sum_hessian":[2.1269223E4,2.054744E4,7.2178284E2,1.11982315E2,2.0435457E4,1.0094024E2,6.208426E2,8.925303E1,2.2729288E1,1.9263508E4,1.1719491E3,2.1522105E2,4.0562152E2],"tree_param":{"num_deleted":"0","num_feature":"39","num_nodes":"13","size_leaf_vector":"0"}},{"base_weights":[-2.6016047E-3,9.887385E-3,-3.1575885E-1,-2.3496646E-1,3.322206E-2,-1.7056849E0,4.786468E-2,-9.329237E-1,1.5824479E-1,-1.23164326E-1,8.793216E-2,6.3336515E-1,-8.723813E-1],"categories":[],"categories_nodes":[],"categories_segments":[],"categories_sizes":[],"default_left":[true,true,true,true,true,false,true,false,false,false,false,false,false],"id":42,"left_children":[1,3,5,7,9,-1,11,-1,-1,-1,-1,-1,-1],"loss_changes":[8.317095E1,1.168531E2,4.1228043E2,4.8851782E2,1.5976646E2,0E0,3.4938818E2,0E0,0E0,0E0,0E0,0E0,0E0],"parents":[2147483647,0,0,1,1,2,2,3,3,4,4,6,6],"right_children":[2,4,6,8,10,-1,12,-1,-1,-1,-1,-1,-1],"split_conditions":[5E-1,-9.529146E-1,-5.2625006E-1,-1.4738725E-1,3.6490755E-3,-1.705685E-1,5.4209195E-3,-9.329237E-2,1.582448E-2,-1.2316433E-2,8.793216E-3,6.3336514E-2,-8.723813E-2],"split_indices":[28,2,3,9,13,0,13,0,0,0,0,0,0],"split_type":[0,0,0,0,0,0,0,0,0,0,0,0,0],"sum_hessian":[2.126401E4,2.0449438E4,8.1457336E2,1.7784854E3,1.8670951E4,1.6814806E2,6.464253E2,6.403967E2,1.1380886E3,4.8386465E3,1.3832306E4,3.9525723E2,2.5116806E2],"tree_param":{"num_deleted":"0","num_feature":"39","num_nodes":"13","size_leaf_vector":"0"}},{"base_weights":[-2.4120326E-3,-7.712407E-3,7.205229E-1,6.989211E-3,-3.198856E-1,-1.6483364E0,1.1313919E0,1.5125456E-2,-9.1555727E-1,1.7504191E-1,-8.839986E-1,2.32308E0,6.0903215E-1],"categories":[],"categories_nodes":[],"categories_segments":[],"categories_sizes":[],"default_left":[true,true,true,true,true,false,true,false,false,false,false,false,false],"id":43,"left_children":[1,3,5,7,9,-1,11,-1,-1,-1,-1,-1,-1],"loss_changes":[8.142404E1,9.68135E1,1.5239542E2,1.5123503E2,2.6504514E2,0E0,8.09991E1,0E0,0E0,0E0,0E0,0E0,0E0],"parents":[2147483647,0,0,1,1,2,2,3,3,4,4,6,6],"right_children":[2,4,6,8,10,-1,12,-1,-1,-1,-1,-1,-1],"split_conditions":[9.998426E-1,5E-1,5.3592976E-3,9.9817634E-1,-3.4552336E-1,-1.6483365E-1,5.6395624E-3,1.5125456E-3,-9.155573E-2,1.7504191E-2,-8.839986E-2,2.3230802E-1,6.0903218E-2],"split_indices":[4,35,13,4,3,0,13,0,0,0,0,0,0],"split_type":[0,0,0,0,0,0,0,0,0,0,0,0,0],"sum_hessian":[2.1246963E4,2.10933E4,1.5366136E2,2.0145535E4,9.4776483E2,2.2267365E1,1.31394E2,1.9970395E4,1.7514195E2,5.0520776E2,4.4255704E2,3.8992035E1,9.240196E1],"tree_param":{"num_deleted":"0","num_feature":"39","num_nodes":"13","size_leaf_vector":"0"}},{"base_weights":[-2.200755E-3,1.0661265E-2,-3.0075416E-1,-3.414548E-2,1.1493386E-1,-1.1168294E-1,-1.1034524E0,3.6651045E-2,-3.113245E-1,-9.2599136E-1,1.6171432E-1,-1.7357624E0,4.3853678E-2,5.5808896E-1,-1.5216E0],"categories":[],"categories_nodes":[],"categories_segments":[],"categories_sizes":[],"default_left":[true,true,true,true,true,true,true,false,false,false,false,false,false,false,false],"id":44,"left_children":[1,3,5,7,9,11,13,-1,-1,-1,-1,-1,-1,-1,-1],"loss_changes":[8.1570984E1,9.515276E1,1.3302983E2,2.7954785E2,2.982182E2,1.7972928E2,1.16977036E2,0E0,0E0,0E0,0E0,0E0,0E0,0E0,0E0],"parents":[2147483647,0,0,1,1,2,2,3,3,4,4,5,5,6,6],"right_children":[2,4,6,8,10,12,14,-1,-1,-1,-1,-1,-1,-1,-1],"split_conditions":[5E-1,6.320976E-1,6.0896546E-1,1.1593352E-1,1.4563962E-3,-7.865661E-1,-9.330127E-1,3.6651045E-3,-3.113245E-2,-9.259914E-2,1.6171431E-2,-1.7357624E-1,4.385368E-3,5.5808898E-2,-1.5216E-1],"split_indices":[20,4,3,4,13,1,10,0,0,0,0,0,0,0,0],"split_type":[0,0,0,0,0,0,0,0,0,0,0,0,0,0,0],"sum_hessian":[2.124061E4,2.036426E4,8.763511E2,1.4244122E4,6.120137E3,7.102052E2,1.6614587E2,1.134681E4,2.8973123E3,2.624088E2,5.857728E3,6.1183247E1,6.49022E2,3.3338425E1,1.3280743E2],"tree_param":{"num_deleted":"0","num_feature":"39","num_nodes":"15","size_leaf_vector":"0"}},{"base_weights":[-2.053446E-3,-8.9022356E-1,2.1191693E-3,-1.1837544E0,7.136981E-1,4.3474296E-1,-8.076802E-3,1.0767899E0,-9.316732E-1,6.028565E-1,-1.4741133E0,-1.62208E0,-9.6958305E-4],"categories":[],"categories_nodes":[],"categories_segments":[],"categories_sizes":[],"default_left":[true,true,true,false,true,true,true,false,false,false,false,false,false],"id":45,"left_children":[1,3,5,-1,7,9,11,-1,-1,-1,-1,-1,-1],"loss_changes":[7.8645195E1,4.7562515E1,9.317462E1,0E0,1.0546733E1,1.5696469E2,2.3672687E2,0E0,0E0,0E0,0E0,0E0,0E0],"parents":[2147483647,0,0,1,1,2,2,4,4,5,5,6,6],"right_children":[2,4,6,-1,8,10,12,-1,-1,-1,-1,-1,-1],"split_conditions":[1.8030946E-3,5E-1,3.0147952E-3,-1.1837544E-1,-6.573704E-1,5E-1,3.426794E-3,1.0767899E-1,-9.316733E-2,6.0285654E-2,-1.4741133E-1,-1.62208E-1,-9.6958305E-5],"split_indices":[12,15,12,0,3,27,12,0,0,0,0,0,0],"split_type":[0,0,0,0,0,0,0,0,0,0,0,0,0],"sum_hessian":[2.1219582E4,9.82303E1,2.1121352E4,8.3255775E1,1.4974528E1,4.853626E2,2.0635988E4,1.2550512E1,2.424016E0,4.4670532E2,3.8657295E1,8.947542E1,2.0546514E4],"tree_param":{"num_deleted":"0","num_feature":"39","num_nodes":"13","size_leaf_vector":"0"}},{"base_weights":[-1.9066425E-3,-1.3979107E-2,3.0796868E-1,-1.0028289E-1,3.7787367E-2,3.946405E-1,-1.8509592E0,-6.761121E-1,-6.709774E-2,1.6154664E-2,4.608121E-1,8.345527E-2,9.883546E-1],"categories":[],"categories_nodes":[],"categories_segments":[],"categories_sizes":[],"default_left":[true,true,true,true,true,true,false,false,false,false,false,false,false],"id":46,"left_children":[1,3,5,7,9,11,-1,-1,-1,-1,-1,-1,-1],"loss_changes":[7.9344894E1,9.120759E1,1.4955103E2,1.4621814E2,1.1677174E2,1.4133946E2,0E0,0E0,0E0,0E0,0E0,0E0,0E0],"parents":[2147483647,0,0,1,1,2,2,3,3,4,4,5,5],"right_children":[2,4,6,8,10,12,-1,-1,-1,-1,-1,-1,-1],"split_conditions":[5E-1,-3.7940952E-1,9.330127E-1,1.5671414E-3,5E-1,1.6840838E-2,-1.8509592E-1,-6.761121E-2,-6.709774E-3,1.6154664E-3,4.608121E-2,8.345528E-3,9.883546E-2],"split_indices":[17,0,10,13,15,12,0,0,0,0,0,0,0],"split_type":[0,0,0,0,0,0,0,0,0,0,0,0,0],"sum_hessian":[2.1207629E4,2.0413299E4,7.94329E2,7.653176E3,1.2760123E4,7.644565E2,2.9872498E1,4.159654E2,7.2372104E3,1.2140327E4,6.197957E2,5.0231638E2,2.621401E2],"tree_param":{"num_deleted":"0","num_feature":"39","num_nodes":"13","size_leaf_vector":"0"}},{"base_weights":[-1.7421228E-3,-1.3524068E-2,3.0429733E-1,-1.6902785E-1,2.4388012E-2,4.2796448E-1,-1.7318082E0,9.605815E-2,-4.6419266E-1,6.2032354E-1,8.093534E-3,-1.5642012E0,5.575146E-1],"categories":[],"categories_nodes":[],"categories_segments":[],"categories_sizes":[],"default_left":[true,true,true,true,true,true,false,false,false,false,false,false,false],"id":47,"left_children":[1,3,5,7,9,11,-1,-1,-1,-1,-1,-1,-1],"loss_changes":[7.6400635E1,1.20289375E2,1.9852515E2,3.1297256E2,1.5929124E2,1.9219284E2,0E0,0E0,0E0,0E0,0E0,0E0,0E0],"parents":[2147483647,0,0,1,1,2,2,3,3,4,4,5,5],"right_children":[2,4,6,8,10,12,-1,-1,-1,-1,-1,-1,-1],"split_conditions":[5E-1,-8.039205E-1,9.291328E-1,1.2881592E-2,-7.9450536E-1,4.0848106E-3,-1.7318082E-1,9.605816E-3,-4.6419267E-2,6.2032353E-2,8.093534E-4,-1.5642013E-1,5.575146E-2],"split_indices":[37,4,4,12,8,13,0,0,0,0,0,0,0],"split_type":[0,0,0,0,0,0,0,0,0,0,0,0,0],"sum_hessian":[2.1186473E4,2.040199E4,7.8448254E2,3.9983833E3,1.6403607E4,7.4030817E2,4.4174366E1,2.10688E3,1.8915035E3,4.3559476E2,1.5968012E4,4.4526405E1,6.9578174E2],"tree_param":{"num_deleted":"0","num_feature":"39","num_nodes":"13","size_leaf_vector":"0"}},{"base_weights":[-1.600846E-3,9.429205E-3,-3.2067478E-1,-1.4088782E0,1.7542168E-2,7.9815567E-1,-6.6850483E-1,-1.0727866E0,2.3646265E-2,-1.9086357E0,1.515802E0,1.3407902E0,-9.947733E-1],"categories":[],"categories_nodes":[],"categories_segments":[],"categories_sizes":[],"default_left":[true,true,true,false,true,true,true,false,false,false,false,false,false],"id":48,"left_children":[1,3,5,-1,7,9,11,-1,-1,-1,-1,-1,-1],"loss_changes":[7.452453E1,2.3554256E2,2.7588574E2,0E0,1.3548085E2,3.2973523E2,3.5553345E2,0E0,0E0,0E0,0E0,0E0,0E0],"parents":[2147483647,0,0,1,1,2,2,4,4,5,5,6,6],"right_children":[2,4,6,-1,8,10,12,-1,-1,-1,-1,-1,-1],"split_conditions":[5E-1,4.1977133E-4,-9.159756E-1,-1.4088783E-1,1.958068E-3,9.326133E-3,3.6797102E-3,-1.0727866E-1,2.3646266E-3,-1.9086358E-1,1.515802E-1,1.3407902E-1,-9.9477336E-2],"split_indices":[33,13,1,0,12,13,12,0,0,0,0,0,0],"split_type":[0,0,0,0,0,0,0,0,0,0,0,0,0],"sum_hessian":[2.1173479E4,2.046693E4,7.0654987E2,1.1542649E2,2.0351504E4,1.6725684E2,5.39293E2,1.1232867E2,2.0239174E4,3.470359E1,1.3255324E2,7.490261E1,4.6439044E2],"tree_param":{"num_deleted":"0","num_feature":"39","num_nodes":"13","size_leaf_vector":"0"}},{"base_weights":[-1.504946E-3,-2.5274457E-2,1.4456873E-1,5.699382E-2,-1.1345969E-1,4.2846847E-1,-4.8180286E-2,-6.0809787E-2,2.6620275E-1,-3.3478615E-1,3.070352E-2,-4.798771E-1,5.8762956E-1,-1.9596628E0,2.7354406E-2],"categories":[],"categories_nodes":[],"categories_segments":[],"categories_sizes":[],"default_left":[true,true,true,true,true,true,true,false,false,false,false,false,false,false,false],"id":49,"left_children":[1,3,5,7,9,11,13,-1,-1,-1,-1,-1,-1,-1,-1],"loss_changes":[7.346502E1,1.320263E2,1.6205902E2,2.3206018E2,2.8025775E2,1.7341467E2,2.5483359E2,0E0,0E0,0E0,0E0,0E0,0E0,0E0,0E0],"parents":[2147483647,0,0,1,1,2,2,3,3,4,4,5,5,6,6],"right_children":[2,4,6,8,10,12,14,-1,-1,-1,-1,-1,-1,-1,-1],"split_conditions":[9.159756E-1,-8.87569E-2,4.1763247E-3,-5.335889E-1,6.320976E-1,-6.8808264E-1,-9.690008E-1,-6.080979E-3,2.6620274E-2,-3.3478614E-2,3.0703521E-3,-4.798771E-2,5.8762956E-2,-1.9596629E-1,2.7354406E-3],"split_indices":[0,8,13,8,4,2,4,0,0,0,0,0,0,0,0],"split_type":[0,0,0,0,0,0,0,0,0,0,0,0,0,0,0],"sum_hessian":[2.115662E4,1.8196467E4,2.960152E3,9.414244E3,8.782224E3,1.196543E3,1.7636093E3,6.0232925E3,3.390951E3,3.463526E3,5.3186973E3,1.7809946E2,1.0184435E3,6.609382E1,1.6975154E3],"tree_param":{"num_deleted":"0","num_feature":"39","num_nodes":"15","size_leaf_vector":"0"}},{"base_weights":[-1.3790694E-3,1.3729736E-2,-2.209773E-1,3.225359E-2,-2.0585062E-1,-3.0571997E-1,1.0939454E0,7.625153E-2,-8.7762706E-2,1.2358785E0,-2.619688E-1,-3.35011E-2,-7.030858E-1,1.8213899E0,-1.6652025E0],"categories":[],"categories_nodes":[],"categories_segments":[],"categories_sizes":[],"default_left":[true,true,true,true,true,true,true,false,false,false,false,false,false,false,false],"id":50,"left_children":[1,3,5,7,9,11,13,-1,-1,-1,-1,-1,-1,-1,-1],"loss_changes":[7.0093666E1,8.040537E1,1.5187398E2,9.626628E1,1.247506E2,1.3826111E2,1.6873468E2,0E0,0E0,0E0,0E0,0E0,0E0,0E0,0E0],"parents":[2147483647,0,0,1,1,2,2,3,3,4,4,5,5,6,6],"right_children":[2,4,6,8,10,12,14,-1,-1,-1,-1,-1,-1,-1,-1],"split_conditions":[5E-1,5E-1,1.6560879E-2,1.9145928E-2,4.8481536E-4,3.0120026E-2,1.740795E-2,7.625153E-3,-8.776271E-3,1.2358785E-1,-2.619688E-2,-3.35011E-3,-7.030858E-2,1.82139E-1,-1.6652025E-1],"split_indices":[24,27,13,12,13,4,13,0,0,0,0,0,0,0,0],"split_type":[0,0,0,0,0,0,0,0,0,0,0,0,0,0,0],"sum_hessian":[2.1124209E4,1.9765256E4,1.3589524E3,1.8228361E4,1.5368959E3,1.2773956E3,8.1556656E1,1.3338745E4,4.889615E3,5.6793518E1,1.4801024E3,7.5871545E2,5.1868024E2,6.480959E1,1.6747065E1],"tree_param":{"num_deleted":"0","num_feature":"39","num_nodes":"15","size_leaf_vector":"0"}},{"base_weights":[-1.2693993E-3,1.0128218E-2,-2.8950956E-1,-2.0120487E-1,3.0135341E-2,-1.5992646E0,4.1504025E-2,-8.913549E-1,1.3332775E-1,-1.07682005E-1,7.800564E-2,2.9464933E-1,-1.7686855E0],"categories":[],"categories_nodes":[],"categories_segments":[],"categories_sizes":[],"default_left":[true,true,true,true,true,false,true,false,false,false,false,false,false],"id":51,"left_children":[1,3,5,7,9,-1,11,-1,-1,-1,-1,-1,-1],"loss_changes":[6.936016E1,8.5878525E1,3.482392E2,4.0567365E2,1.2241606E2,0E0,2.9472977E2,0E0,0E0,0E0,0E0,0E0,0E0],"parents":[2147483647,0,0,1,1,2,2,3,3,4,4,6,6],"right_children":[2,4,6,8,10,-1,12,-1,-1,-1,-1,-1,-1],"split_conditions":[5E-1,-9.529146E-1,-5.2625006E-1,-1.4153504E-1,3.6490755E-3,-1.5992646E-1,6.3207996E-1,-8.913549E-2,1.3332776E-2,-1.07682E-2,7.800564E-3,2.9464934E-2,-1.7686854E-1],"split_indices":[28,2,3,5,13,0,5,0,0,0,0,0,0],"split_type":[0,0,0,0,0,0,0,0,0,0,0,0,0],"sum_hessian":[2.11107E4,2.030862E4,8.020802E2,1.7555784E3,1.8553041E4,1.610411E2,6.410391E2,5.726079E2,1.1829705E3,4.7826543E3,1.3770387E4,5.6312616E2,7.791295E1],"tree_param":{"num_deleted":"0","num_feature":"39","num_nodes":"13","size_leaf_vector":"0"}},{"base_weights":[-1.2250444E-3,9.535154E-3,-3.074459E-1,-8.921657E-1,1.4334007E-2,-1.6494606E0,-9.655548E-2,-1.5250832E0,1.4123559E0,-7.146841E-4,2.60941E-1,-1.1552356E0,1.8832883E-1],"categories":[],"categories_nodes":[],"categories_segments":[],"categories_sizes":[],"default_left":[true,true,true,true,true,false,true,false,false,false,false,false,false],"id":52,"left_children":[1,3,5,7,9,-1,11,-1,-1,-1,-1,-1,-1],"loss_changes":[6.950221E1,8.8188156E1,2.0248978E2,1.5951913E2,7.522608E1,0E0,1.8716562E2,0E0,0E0,0E0,0E0,0E0,0E0],"parents":[2147483647,0,0,1,1,2,2,3,3,4,4,6,6],"right_children":[2,4,6,8,10,-1,12,-1,-1,-1,-1,-1,-1],"split_conditions":[5E-1,-9.996574E-1,-7.5778425E-1,5E-1,3.0392751E-2,-1.6494606E-1,-5.335889E-1,-1.5250832E-1,1.4123559E-1,-7.146841E-5,2.60941E-2,-1.1552357E-1,1.8832883E-2],"split_indices":[18,4,2,19,12,0,8,0,0,0,0,0,0],"split_type":[0,0,0,0,0,0,0,0,0,0,0,0,0],"sum_hessian":[2.1091363E4,2.0376334E4,7.1502875E2,1.0688989E2,2.0269443E4,9.617725E1,6.188515E2,8.412413E1,2.2765762E1,1.9104621E4,1.1648236E3,1.3057114E2,4.8828036E2],"tree_param":{"num_deleted":"0","num_feature":"39","num_nodes":"13","size_leaf_vector":"0"}},{"base_weights":[-1.1524088E-3,1.0477871E-2,-2.7259576E-1,-1.4304414E-2,1.6008805E-1,-9.402494E-2,-1.1051162E0,3.03872E-3,-3.795777E-1,1.807362E-1,-2.174602E0,-1.5822582E0,1.9692436E-2,1.4140989E0,-1.5036379E0],"categories":[],"categories_nodes":[],"categories_segments":[],"categories_sizes":[],"default_left":[true,true,true,true,true,true,true,false,false,false,false,false,false,false,false],"id":53,"left_children":[1,3,5,7,9,11,13,-1,-1,-1,-1,-1,-1,-1,-1],"loss_changes":[6.655915E1,7.4961105E1,1.2867197E2,1.09882034E2,1.3889519E2,1.2092285E2,1.5562419E2,0E0,0E0,0E0,0E0,0E0,0E0,0E0,0E0],"parents":[2147483647,0,0,1,1,2,2,3,3,4,4,5,5,6,6],"right_children":[2,4,6,8,10,12,14,-1,-1,-1,-1,-1,-1,-1,-1],"split_conditions":[5E-1,9.159756E-1,7.171922E-1,5E-1,3.583157E-2,-9.6683884E-1,5.306814E-4,3.0387202E-4,-3.795777E-2,1.807362E-2,-2.174602E-1,-1.5822582E-1,1.9692436E-3,1.4140989E-1,-1.5036379E-1],"split_indices":[20,0,8,35,12,4,13,0,0,0,0,0,0,0,0],"split_type":[0,0,0,0,0,0,0,0,0,0,0,0,0,0,0],"sum_hessian":[2.1081387E4,2.0216164E4,8.652217E2,1.7344094E4,2.8720706E3,7.133295E2,1.5189212E2,1.6558873E4,7.8522174E2,2.847807E3,2.4263594E1,4.9720276E1,6.6360925E2,2.0398252E1,1.3149387E2],"tree_param":{"num_deleted":"0","num_feature":"39","num_nodes":"15","size_leaf_vector":"0"}},{"base_weights":[-1.0876587E-3,9.068679E-3,-2.97064E-1,-1.3596345E0,1.6419722E-2,7.304004E-1,-6.160746E-1,-1.0149096E0,2.191166E-2,-1.7493929E0,1.38491E0,1.1814231E0,-9.148752E-1],"categories":[],"categories_nodes":[],"categories_segments":[],"categories_sizes":[],"default_left":[true,true,true,false,true,true,true,false,false,false,false,false,false],"id":54,"left_children":[1,3,5,-1,7,9,11,-1,-1,-1,-1,-1,-1],"loss_changes":[6.3315613E1,2.0491403E2,2.2949237E2,0E0,1.1475414E2,2.7187445E2,2.877652E2,0E0,0E0,0E0,0E0,0E0,0E0],"parents":[2147483647,0,0,1,1,2,2,4,4,5,5,6,6],"right_children":[2,4,6,-1,8,10,12,-1,-1,-1,-1,-1,-1],"split_conditions":[5E-1,4.1977133E-4,-9.159756E-1,-1.3596345E-1,1.958068E-3,9.326133E-3,3.6797102E-3,-1.0149097E-1,2.1911662E-3,-1.7493929E-1,1.38491E-1,1.1814231E-1,-9.148752E-2],"split_indices":[33,13,1,0,12,13,12,0,0,0,0,0,0],"split_type":[0,0,0,0,0,0,0,0,0,0,0,0,0],"sum_hessian":[2.106093E4,2.0363145E4,6.977857E2,1.0779955E2,2.0255346E4,1.6501581E2,5.3276996E2,1.0631699E2,2.0149027E4,3.4109516E1,1.309063E2,7.551853E1,4.572514E2],"tree_param":{"num_deleted":"0","num_feature":"39","num_nodes":"13","size_leaf_vector":"0"}},{"base_weights":[-1.0374915E-3,6.562278E-3,-3.872048E-1,1.27107E-2,-1.8146694E0,-1.4508684E0,2.610212E-1,6.7870477E-3,1.5641373E0,-1.8600919E0,5.253388E-1,5.452133E-1,-1.9758143E0],"categories":[],"categories_nodes":[],"categories_segments":[],"categories_sizes":[],"default_left":[true,true,true,true,false,true,true,false,false,false,false,false,false],"id":55,"left_children":[1,3,5,7,-1,9,11,-1,-1,-1,-1,-1,-1],"loss_changes":[6.175641E1,2.3110918E2,2.8040433E2,1.8901605E2,0E0,1.2546915E2,1.6202979E2,0E0,0E0,0E0,0E0,0E0,0E0],"parents":[2147483647,0,0,1,1,2,2,3,3,5,5,6,6],"right_children":[2,4,6,8,-1,10,12,-1,-1,-1,-1,-1,-1],"split_conditions":[2.1567691E-2,3.7920885E-2,3.19215E-2,2.146555E-2,-1.8146694E-1,5E-1,6.035534E-1,6.7870476E-4,1.5641373E-1,-1.860092E-1,5.2533884E-2,5.452133E-2,-1.9758144E-1],"split_indices":[13,12,13,13,0,36,0,0,0,0,0,0,0],"split_type":[0,0,0,0,0,0,0,0,0,0,0,0,0],"sum_hessian":[2.1041059E4,2.0635926E4,4.0513187E2,2.0567484E4,6.844217E1,1.5293883E2,2.5219305E2,2.0490252E4,7.7231445E1,1.26750656E2,2.6188171E1,2.2443468E2,2.7758383E1],"tree_param":{"num_deleted":"0","num_feature":"39","num_nodes":"13","size_leaf_vector":"0"}},{"base_weights":[-9.6009026E-4,-5.342153E-2,5.3706948E-2,-3.233257E-1,3.228798E-2,3.5904387E-1,-1.4357289E-3,-3.995128E-1,7.7076393E-1,2.2794697E-1,-1.1266383E-1,4.9172145E-1,-3.6572367E-1,2.2441155E-1,-1.4324021E-1],"categories":[],"categories_nodes":[],"categories_segments":[],"categories_sizes":[],"default_left":[true,true,true,true,true,true,true,false,false,false,false,false,false,false,false],"id":56,"left_children":[1,3,5,7,9,11,13,-1,-1,-1,-1,-1,-1,-1,-1],"loss_changes":[6.0330013E1,2.4833893E2,1.7344899E2,2.1597711E2,2.3112091E2,1.5171306E2,2.7951578E2,0E0,0E0,0E0,0E0,0E0,0E0,0E0,0E0],"parents":[2147483647,0,0,1,1,2,2,3,3,4,4,5,5,6,6],"right_children":[2,4,6,8,10,12,14,-1,-1,-1,-1,-1,-1,-1,-1],"split_conditions":[1.5123342E-1,-6.90167E-1,3.468595E-1,5E-1,8.87569E-2,7.99993E-1,4.3671867E-3,-3.995128E-2,7.70764E-2,2.2794697E-2,-1.1266383E-2,4.9172144E-2,-3.6572367E-2,2.2441154E-2,-1.43240215E-2],"split_indices":[2,4,2,37,8,4,13,0,0,0,0,0,0,0,0],"split_type":[0,0,0,0,0,0,0,0,0,0,0,0,0,0,0],"sum_hessian":[2.1034219E4,1.073365E4,1.0300567E4,2.5863413E3,8.1473096E3,1.574838E3,8.7257295E3,2.4185593E3,1.6778192E2,3.4669607E3,4.6803486E3,1.3314258E3,2.4341226E2,3.3653176E3,5.360412E3],"tree_param":{"num_deleted":"0","num_feature":"39","num_nodes":"15","size_leaf_vector":"0"}},{"base_weights":[-8.8401214E-4,-5.5974512E-3,6.375209E-1,9.682136E-3,-2.3112412E-1,-1.5494237E0,9.942315E-1,-4.6356955E-1,1.8579569E-2,4.343412E-2,-6.576445E-1,1.1950355E0,-1.6223627E0],"categories":[],"categories_nodes":[],"categories_segments":[],"categories_sizes":[],"default_left":[true,true,true,true,true,false,true,false,false,false,false,false,false],"id":57,"left_children":[1,3,5,7,9,-1,11,-1,-1,-1,-1,-1,-1],"loss_changes":[6.3271206E1,7.192775E1,1.217594E2,8.232415E1,1.5512605E2,0E0,7.187454E1,0E0,0E0,0E0,0E0,0E0,0E0],"parents":[2147483647,0,0,1,1,2,2,3,3,4,4,6,6],"right_children":[2,4,6,8,10,-1,12,-1,-1,-1,-1,-1,-1],"split_conditions":[9.998426E-1,5E-1,5.3592976E-3,-9.9759334E-1,3.0120026E-2,-1.5494238E-1,1.9579649E-2,-4.6356957E-2,1.8579569E-3,4.3434124E-3,-6.576445E-2,1.1950355E-1,-1.6223627E-1],"split_indices":[4,24,13,5,4,0,12,0,0,0,0,0,0],"split_type":[0,0,0,0,0,0,0,0,0,0,0,0,0],"sum_hessian":[2.1024557E4,2.087145E4,1.531058E2,1.9548016E4,1.3234344E3,2.100196E1,1.3210384E2,3.597901E2,1.9188225E4,8.0569403E2,5.177404E2,1.2319299E2,8.910851E0],"tree_param":{"num_deleted":"0","num_feature":"39","num_nodes":"13","size_leaf_vector":"0"}},{"base_weights":[-8.302925E-4,-3.618066E-2,8.216088E-2,3.4340993E-2,-2.1907476E-1,1.5521423E-2,6.5445244E-1,9.6700406E-1,2.0194815E-2,-9.9744505E-1,-1.1195268E-1,8.155373E-2,-5.485736E-1,9.274454E-1,-1.9117233E-1],"categories":[],"categories_nodes":[],"categories_segments":[],"categories_sizes":[],"default_left":[true,true,true,true,true,true,true,false,false,false,false,false,false,false,false],"id":58,"left_children":[1,3,5,7,9,11,13,-1,-1,-1,-1,-1,-1,-1,-1],"loss_changes":[6.1654602E1,1.9009613E2,2.3940157E2,1.4032619E2,3.4186963E2,2.0952725E2,1.5132E2,0E0,0E0,0E0,0E0,0E0,0E0,0E0,0E0],"parents":[2147483647,0,0,1,1,2,2,3,3,4,4,5,5,6,6],"right_children":[2,4,6,8,10,12,14,-1,-1,-1,-1,-1,-1,-1,-1],"split_conditions":[6.320976E-1,-8.87569E-2,6.838941E-1,-9.904958E-1,2.7746619E-3,9.159756E-1,2.0048442E-1,9.670041E-2,2.0194815E-3,-9.9744506E-2,-1.1195268E-2,8.155373E-3,-5.4857362E-2,9.2744544E-2,-1.9117234E-2],"split_indices":[4,8,5,5,13,1,7,0,0,0,0,0,0,0,0],"split_type":[0,0,0,0,0,0,0,0,0,0,0,0,0,0,0],"sum_hessian":[2.1013484E4,1.4736843E4,6.2766426E3,1.0636395E4,4.1004473E3,5.622919E3,6.537236E2,1.5791087E2,1.0478484E4,4.9504443E2,3.6054028E3,5.0344478E3,5.884711E2,4.9411252E2,1.5961108E2],"tree_param":{"num_deleted":"0","num_feature":"39","num_nodes":"15","size_leaf_vector":"0"}},{"base_weights":[-7.8515016E-4,9.08831E-3,-2.837115E-1,-8.5397303E-1,1.3490219E-2,-5.03717E-1,8.93592E-1,-1.4551277E0,1.2427461E0,-1.1408176E-2,1.4682487E-1,-8.537051E-1,3.3382472E-1,-1.901276E0,1.3414263E0],"categories":[],"categories_nodes":[],"categories_segments":[],"categories_sizes":[],"default_left":[true,true,true,true,true,true,true,false,false,false,false,false,false,false,false],"id":59,"left_children":[1,3,5,7,9,11,13,-1,-1,-1,-1,-1,-1,-1,-1],"loss_changes":[5.8622623E1,7.7050285E1,1.8374191E2,1.3152887E2,6.6982864E1,1.7524644E2,1.4245877E2,0E0,0E0,0E0,0E0,0E0,0E0,0E0,0E0],"parents":[2147483647,0,0,1,1,2,2,3,3,4,4,5,5,6,6],"right_children":[2,4,6,8,10,12,14,-1,-1,-1,-1,-1,-1,-1,-1],"split_conditions":[5E-1,-9.996574E-1,9.330127E-1,5E-1,1.19152125E-2,7.5486517E-1,1.2940952E-1,-1.4551277E-1,1.2427461E-1,-1.1408177E-3,1.4682487E-2,-8.537051E-2,3.338247E-2,-1.901276E-1,1.3414262E-1],"split_indices":[18,4,11,19,13,3,1,0,0,0,0,0,0,0,0],"split_type":[0,0,0,0,0,0,0,0,0,0,0,0,0,0,0],"sum_hessian":[2.0983729E4,2.0277074E4,7.066541E2,1.0191584E2,2.0175158E4,5.958739E2,1.10780235E2,7.944422E1,2.2471619E1,1.7001312E4,3.173845E3,4.2024466E2,1.7562923E2,1.4851113E1,9.5929115E1],"tree_param":{"num_deleted":"0","num_feature":"39","num_nodes":"15","size_leaf_vector":"0"}},{"base_weights":[-7.3904154E-4,-1.1125305E-2,2.6479995E-1,-2.085916E-1,6.217927E-3,3.4339723E-1,-1.7266774E0,-4.899258E-1,4.506056E-1,4.6871683E-1,-5.658622E-3,6.469597E-2,8.754901E-1],"categories":[],"categories_nodes":[],"categories_segments":[],"categories_sizes":[],"default_left":[true,true,true,true,true,true,false,false,false,false,false,false,false],"id":60,"left_children":[1,3,5,7,9,11,-1,-1,-1,-1,-1,-1,-1],"loss_changes":[5.7846428E1,6.9128235E1,1.2417053E2,3.024569E2,1.0192923E2,1.1270184E2,0E0,0E0,0E0,0E0,0E0,0E0,0E0],"parents":[2147483647,0,0,1,1,2,2,3,3,4,4,5,5],"right_children":[2,4,6,8,10,12,-1,-1,-1,-1,-1,-1,-1],"split_conditions":[5E-1,-9.622734E-1,9.330127E-1,9.536628E-3,-9.469527E-1,1.6840838E-2,-1.7266774E-1,-4.899258E-2,4.506056E-2,4.6871684E-2,-5.658622E-4,6.469597E-3,8.7549016E-2],"split_indices":[17,5,10,13,5,12,0,0,0,0,0,0,0],"split_type":[0,0,0,0,0,0,0,0,0,0,0,0,0],"sum_hessian":[2.0972303E4,2.0183793E4,7.8850854E2,1.6287031E3,1.855509E4,7.5936633E2,2.914221E1,1.1417012E3,4.8700195E2,4.6358554E2,1.8091504E4,4.9907883E2,2.602875E2],"tree_param":{"num_deleted":"0","num_feature":"39","num_nodes":"13","size_leaf_vector":"0"}},{"base_weights":[-6.854844E-4,1.3765848E-2,-1.8542252E-1,5.6097493E-2,-8.1033885E-2,-1.2241628E0,-1.0658857E-1,8.005483E-2,-6.455102E-1,7.455126E-2,-2.4377698E-1,1.3826354E0,-1.6424644E-1],"categories":[],"categories_nodes":[],"categories_segments":[],"categories_sizes":[],"default_left":[true,true,true,true,true,false,true,false,false,false,false,false,false],"id":61,"left_children":[1,3,5,7,9,-1,11,-1,-1,-1,-1,-1,-1],"loss_changes":[5.5959846E1,7.801951E1,1.2440088E2,2.2595767E2,1.519799E2,0E0,1.216901E2,0E0,0E0,0E0,0E0,0E0,0E0],"parents":[2147483647,0,0,1,1,2,2,3,3,4,4,6,6],"right_children":[2,4,6,8,10,-1,12,-1,-1,-1,-1,-1,-1],"split_conditions":[5E-1,6.035534E-1,-9.159756E-1,1.8458925E-2,5.660507E-3,-1.2241628E-1,-9.986576E-1,8.005483E-3,-6.455102E-2,7.4551264E-3,-2.4377698E-2,1.3826354E-1,-1.6424645E-2],"split_indices":[27,1,0,13,13,0,4,0,0,0,0,0,0],"split_type":[0,0,0,0,0,0,0,0,0,0,0,0,0],"sum_hessian":[2.0959172E4,1.9439418E4,1.5197523E3,1.3438867E4,6.0005513E3,1.0617885E2,1.4135735E3,1.2995988E4,4.4287952E2,3.068017E3,2.9325342E3,5.1832436E1,1.361741E3],"tree_param":{"num_deleted":"0","num_feature":"39","num_nodes":"13","size_leaf_vector":"0"}},{"base_weights":[-6.592611E-4,-1.3582539E-2,2.0892377E-1,1.7492626E-2,-3.624516E-1,3.2477203E-1,-1.0494372E0,1.4759302E-2,2.5137553E0,-2.640762E-1,-1.8309023E0,-1.7324817E0,3.8974005E-1,1.1670656E0,-1.7579795E0],"categories":[],"categories_nodes":[],"categories_segments":[],"categories_sizes":[],"default_left":[true,true,true,true,true,true,true,false,false,false,false,false,false,false,false],"id":62,"left_children":[1,3,5,7,9,11,13,-1,-1,-1,-1,-1,-1,-1,-1],"loss_changes":[5.671588E1,2.1383434E2,1.776377E2,1.23539314E2,2.3256189E2,1.4962639E2,1.6344179E2,0E0,0E0,0E0,0E0,0E0,0E0,0E0,0E0],"parents":[2147483647,0,0,1,1,2,2,3,3,4,4,5,5,6,6],"right_children":[2,4,6,8,10,12,14,-1,-1,-1,-1,-1,-1,-1,-1],"split_conditions":[3.0392751E-2,2.3257742E-2,5E-1,2.3256358E-2,5E-1,-9.7827274E-1,3.0560587E-2,1.4759302E-3,2.5137553E-1,-2.640762E-2,-1.8309024E-1,-1.7324817E-1,3.8974006E-2,1.16706565E-1,-1.7579795E-1],"split_indices":[12,12,25,12,36,2,12,0,0,0,0,0,0,0,0],"split_type":[0,0,0,0,0,0,0,0,0,0,0,0,0,0,0],"sum_hessian":[2.0937916E4,1.972271E4,1.2152036E3,1.8110488E4,1.6122238E3,1.1134392E3,1.0176444E2,1.8091684E4,1.8803879E1,1.5121038E3,1.00119995E2,3.330021E1,1.080139E3,2.4493944E1,7.72705E1],"tree_param":{"num_deleted":"0","num_feature":"39","num_nodes":"15","size_leaf_vector":"0"}},{"base_weights":[-6.3386164E-4,8.88959E-3,-2.8189245E-1,-1.3152252E0,1.5491238E-2,6.737545E-1,-5.768866E-1,1.54865E0,1.2200292E-2,-1.6299536E0,1.2756183E0,1.7778206E0,-7.786149E-1],"categories":[],"categories_nodes":[],"categories_segments":[],"categories_sizes":[],"default_left":[true,true,true,false,true,true,true,false,false,false,false,false,false],"id":63,"left_children":[1,3,5,-1,7,9,11,-1,-1,-1,-1,-1,-1],"loss_changes":[5.6071465E1,1.7701466E2,1.9366531E2,0E0,1.01641235E2,2.2693904E2,2.5048978E2,0E0,0E0,0E0,0E0,0E0,0E0],"parents":[2147483647,0,0,1,1,2,2,4,4,5,5,6,6],"right_children":[2,4,6,-1,8,10,12,-1,-1,-1,-1,-1,-1],"split_conditions":[5E-1,4.1977133E-4,-9.159756E-1,-1.3152252E-1,4.2935E-4,9.326133E-3,2.949868E-4,1.5486501E-1,1.2200292E-3,-1.6299537E-1,1.2756184E-1,1.7778206E-1,-7.786149E-2],"split_indices":[33,13,1,0,13,13,13,0,0,0,0,0,0],"split_type":[0,0,0,0,0,0,0,0,0,0,0,0,0],"sum_hessian":[2.0931559E4,2.0246963E4,6.845964E2,9.946123E1,2.01475E4,1.6117586E2,5.234205E2,4.2148453E1,2.0105352E4,3.3032333E1,1.2814352E2,4.068659E1,4.8273392E2],"tree_param":{"num_deleted":"0","num_feature":"39","num_nodes":"13","size_leaf_vector":"0"}},{"base_weights":[-5.9280096E-4,1.009953E-2,-2.5209236E-1,-2.5377294E-2,1.1088722E-1,-8.869399E-2,-1.0523182E0,1.24290055E-2,-2.858144E-1,6.473506E-1,4.9247604E-2,1.0214884E-1,-9.479235E-1,1.3213001E0,-1.4365304E0],"categories":[],"categories_nodes":[],"categories_segments":[],"categories_sizes":[],"default_left":[true,true,true,true,true,true,true,false,false,false,false,false,false,false,false],"id":64,"left_children":[1,3,5,7,9,11,13,-1,-1,-1,-1,-1,-1,-1,-1],"loss_changes":[5.6243847E1,7.173875E1,1.11433334E2,1.4612032E2,1.726958E2,1.1642299E2,1.3371286E2,0E0,0E0,0E0,0E0,0E0,0E0,0E0,0E0],"parents":[2147483647,0,0,1,1,2,2,3,3,4,4,5,5,6,6],"right_children":[2,4,6,8,10,12,14,-1,-1,-1,-1,-1,-1,-1,-1],"split_conditions":[5E-1,6.830127E-1,7.171922E-1,8.783797E-1,4.979863E-3,6.0896546E-1,5.306814E-4,1.2429006E-3,-2.858144E-2,6.473506E-2,4.9247607E-3,1.0214884E-2,-9.479235E-2,1.3213001E-1,-1.4365304E-1],"split_indices":[20,10,8,6,12,3,13,0,0,0,0,0,0,0,0],"split_type":[0,0,0,0,0,0,0,0,0,0,0,0,0,0,0],"sum_hessian":[2.0913414E4,2.0061475E4,8.5193994E2,1.4838971E4,5.2225044E3,7.08402E2,1.43538E2,1.2958767E4,1.8802043E3,5.372443E2,4.68526E3,5.8037616E2,1.280258E2,1.9657469E1,1.2388053E2],"tree_param":{"num_deleted":"0","num_feature":"39","num_nodes":"15","size_leaf_vector":"0"}},{"base_weights":[-5.732598E-4,9.574746E-3,-2.5911734E-1,-8.4191546E-2,5.4462444E-2,-1.5152045E0,4.4430483E-2,8.0899216E-2,-3.1449562E-1,6.7291784E-1,2.8535062E-2,5.515688E-1,-7.6499325E-1],"categories":[],"categories_nodes":[],"categories_segments":[],"categories_sizes":[],"default_left":[true,true,true,true,true,false,true,false,false,false,false,false,false],"id":65,"left_children":[1,3,5,7,9,-1,11,-1,-1,-1,-1,-1,-1],"loss_changes":[5.4837456E1,8.465263E1,3.010453E2,2.4759E2,2.1807478E2,0E0,2.6178854E2,0E0,0E0,0E0,0E0,0E0,0E0],"parents":[2147483647,0,0,1,1,2,2,3,3,4,4,6,6],"right_children":[2,4,6,8,10,-1,12,-1,-1,-1,-1,-1,-1],"split_conditions":[5E-1,1.0577911E-2,-5.2625006E-1,5.0389305E-2,1.0859247E-2,-1.5152046E-1,5.4209195E-3,8.089921E-3,-3.1449564E-2,6.729179E-2,2.8535062E-3,5.5156883E-2,-7.649933E-2],"split_indices":[28,12,3,3,12,0,13,0,0,0,0,0,0],"split_type":[0,0,0,0,0,0,0,0,0,0,0,0,0],"sum_hessian":[2.0898809E4,2.0110426E4,7.8838293E2,6.5102446E3,1.3600182E4,1.526641E2,6.357189E2,3.7923745E3,2.71787E3,5.4621277E2,1.3053969E4,3.9103647E2,2.4468239E2],"tree_param":{"num_deleted":"0","num_feature":"39","num_nodes":"13","size_leaf_vector":"0"}},{"base_weights":[-5.695632E-4,1.03445705E-2,-2.2992438E-1,-9.3292445E-2,4.4778213E-2,1.5102203E-1,-6.535862E-1,-3.817369E-1,2.7892882E-2,9.6049994E-2,-1.3954702E-1,2.811877E-1,-1.7186524E0,-8.9974815E-1,1.5254309E0],"categories":[],"categories_nodes":[],"categories_segments":[],"categories_sizes":[],"default_left":[true,true,true,true,true,true,true,false,false,false,false,false,false,false,false],"id":66,"left_children":[1,3,5,7,9,11,13,-1,-1,-1,-1,-1,-1,-1,-1],"loss_changes":[5.2270233E1,7.113641E1,1.5318352E2,1.7378703E2,1.4141847E2,1.2222853E2,2.4235826E2,0E0,0E0,0E0,0E0,0E0,0E0,0E0,0E0],"parents":[2147483647,0,0,1,1,2,2,3,3,4,4,5,5,6,6],"right_children":[2,4,6,8,10,12,14,-1,-1,-1,-1,-1,-1,-1,-1],"split_conditions":[5E-1,9.453125E-3,-3.4552336E-1,-3.7940952E-1,7.865661E-1,2.1806594E-2,9.9906486E-1,-3.817369E-2,2.7892883E-3,9.605E-3,-1.3954702E-2,2.8118772E-2,-1.7186524E-1,-8.997481E-2,1.525431E-1],"split_indices":[35,12,3,1,1,12,4,0,0,0,0,0,0,0,0],"split_type":[0,0,0,0,0,0,0,0,0,0,0,0,0,0,0],"sum_hessian":[2.087934E4,1.9931814E4,9.475252E2,4.970398E3,1.4961417E4,4.992528E2,4.4827243E2,1.4698119E3,3.500586E3,1.1705814E4,3.2556025E3,4.6755173E2,3.1701086E1,4.032991E2,4.4973316E1],"tree_param":{"num_deleted":"0","num_feature":"39","num_nodes":"15","size_leaf_vector":"0"}},{"base_weights":[-5.467877E-4,-1.4224556E-1,1.9062644E-2,8.869704E-2,-5.023974E-1,-9.3298787E-1,2.403275E-2,-6.1944515E-1,2.8198984E-1,-9.1679233E-1,1.961928E-1,-1.2588638E0,7.1911275E-1,1.988305E0,1.9526226E-2],"categories":[],"categories_nodes":[],"categories_segments":[],"categories_sizes":[],"default_left":[true,true,true,true,true,true,true,false,false,false,false,false,false,false,false],"id":67,"left_children":[1,3,5,7,9,11,13,-1,-1,-1,-1,-1,-1,-1,-1],"loss_changes":[5.7965588E1,2.1097404E2,8.673357E1,2.1179205E2,2.8705798E2,5.2155624E1,1.6134302E2,0E0,0E0,0E0,0E0,0E0,0E0,0E0,0E0],"parents":[2147483647,0,0,1,1,2,2,3,3,4,4,5,5,6,6],"right_children":[2,4,6,8,10,12,14,-1,-1,-1,-1,-1,-1,-1,-1],"split_conditions":[-9.159756E-1,1.4751915E-2,1.958068E-3,3.765576E-3,5.912396E-1,5E-1,1.9761706E-3,-6.1944515E-2,2.8198985E-2,-9.167924E-2,1.961928E-2,-1.2588638E-1,7.1911275E-2,1.988305E-1,1.9526227E-3],"split_indices":[0,12,12,13,5,15,12,0,0,0,0,0,0,0,0],"split_type":[0,0,0,0,0,0,0,0,0,0,0,0,0,0,0],"sum_hessian":[2.0859217E4,2.5349902E3,1.8324227E4,1.5450203E3,9.8997003E2,9.41937E1,1.8230031E4,3.308227E2,1.2141975E3,6.2118097E2,3.6878906E2,7.887389E1,1.5319809E1,4.0720818E1,1.818931E4],"tree_param":{"num_deleted":"0","num_feature":"39","num_nodes":"15","size_leaf_vector":"0"}},{"base_weights":[-5.4818165E-4,9.449558E-3,-2.3856968E-1,-1.8703109E-3,2.599751E-1,-9.947473E-1,-7.965278E-2,-2.1451107E-1,2.5826888E-2,4.9298647E-1,-9.3184763E-1,-1.4317023E0,9.0152466E-1,3.926855E-2,-1.9049654E0],"categories":[],"categories_nodes":[],"categories_segments":[],"categories_sizes":[],"default_left":[true,true,true,true,true,true,true,false,false,false,false,false,false,false,false],"id":68,"left_children":[1,3,5,7,9,11,13,-1,-1,-1,-1,-1,-1,-1,-1],"loss_changes":[4.959768E1,5.672474E1,1.00881775E2,1.1272197E2,2.4059914E2,1.2211162E2,1.5101123E2,0E0,0E0,0E0,0E0,0E0,0E0,0E0,0E0],"parents":[2147483647,0,0,1,1,2,2,3,3,4,4,5,5,6,6],"right_children":[2,4,6,8,10,12,14,-1,-1,-1,-1,-1,-1,-1,-1],"split_conditions":[5E-1,9.9359244E-1,9.544112E-3,-9.159756E-1,5.08656E-1,9.769023E-1,9.159756E-1,-2.1451106E-2,2.5826888E-3,4.9298648E-2,-9.318476E-2,-1.4317022E-1,9.0152465E-2,3.926855E-3,-1.9049655E-1],"split_indices":[20,2,12,0,5,5,0,0,0,0,0,0,0,0,0],"split_type":[0,0,0,0,0,0,0,0,0,0,0,0,0,0,0],"sum_hessian":[2.0840242E4,2.0001086E4,8.391557E2,1.9137367E4,8.637196E2,1.4481586E2,6.9433984E2,2.2046648E3,1.6932701E4,7.22961E2,1.4075859E2,1.17894585E2,2.6921272E1,6.527884E2,4.1551468E1],"tree_param":{"num_deleted":"0","num_feature":"39","num_nodes":"15","size_leaf_vector":"0"}},{"base_weights":[-5.4151576E-4,2.5989315E-1,-9.666322E-3,1.0258117E0,-3.490038E-1,-3.88745E-1,1.2630787E-2,1.3416711E0,-3.110293E-1,-1.5773783E0,2.3804009E-1,-1.2108728E0,-9.649776E-2,2.5265666E-2,-3.3150738E-1],"categories":[],"categories_nodes":[],"categories_segments":[],"categories_sizes":[],"default_left":[true,true,true,true,true,true,true,false,false,false,false,false,false,false,false],"id":69,"left_children":[1,3,5,7,9,11,13,-1,-1,-1,-1,-1,-1,-1,-1],"loss_changes":[4.949664E1,3.2917078E2,1.7009308E2,1.3237912E2,2.8415826E2,2.6847668E2,8.265031E1,0E0,0E0,0E0,0E0,0E0,0E0,0E0,0E0],"parents":[2147483647,0,0,1,1,2,2,3,3,4,4,5,5,6,6],"right_children":[2,4,6,8,10,12,14,-1,-1,-1,-1,-1,-1,-1,-1],"split_conditions":[-9.9359244E-1,3.4393782E-3,-9.529146E-1,2.1694186E-1,1.2772337E-2,1.091526E-2,5E-1,1.3416712E-1,-3.110293E-2,-1.5773784E-1,2.3804009E-2,-1.21087275E-1,-9.649776E-3,2.5265666E-3,-3.315074E-2],"split_indices":[2,13,2,6,5,12,28,0,0,0,0,0,0,0,0],"split_type":[0,0,0,0,0,0,0,0,0,0,0,0,0,0,0],"sum_hessian":[2.0826215E4,7.040539E2,2.012216E4,3.1151773E2,3.925362E2,1.1169073E3,1.9005254E4,2.5197841E2,5.9539318E1,1.263872E2,2.66149E2,2.92087E2,8.248203E2,1.8333088E4,6.7216455E2],"tree_param":{"num_deleted":"0","num_feature":"39","num_nodes":"15","size_leaf_vector":"0"}},{"base_weights":[-5.555465E-4,1.2364404E-2,-1.8901005E-1,2.1305224E-1,-1.8613868E-3,-5.562269E-1,8.404185E-2,-9.574766E-2,6.5724355E-1,-5.481087E-1,1.4517963E-2,3.2706395E-1,-9.021202E-1,1.968928E-1,-1.8674715E0],"categories":[],"categories_nodes":[],"categories_segments":[],"categories_sizes":[],"default_left":[true,true,true,true,true,true,true,false,false,false,false,false,false,false,false],"id":70,"left_children":[1,3,5,7,9,11,13,-1,-1,-1,-1,-1,-1,-1,-1],"loss_changes":[5.0681473E1,5.561417E1,1.339546E2,1.7693019E2,1.6276942E2,1.7434225E2,1.6924356E2,0E0,0E0,0E0,0E0,0E0,0E0,0E0,0E0],"parents":[2147483647,0,0,1,1,2,2,3,3,4,4,5,5,6,6],"right_children":[2,4,6,8,10,12,14,-1,-1,-1,-1,-1,-1,-1,-1],"split_conditions":[5E-1,4.6333196E-3,-1.2940952E-1,5.8429277E-1,5.7603363E-3,6.6135866E-3,1.5010415E-2,-9.574766E-3,6.572436E-2,-5.481087E-2,1.4517963E-3,3.2706395E-2,-9.021202E-2,1.968928E-2,-1.8674715E-1],"split_indices":[24,12,0,4,12,12,12,0,0,0,0,0,0,0,0],"split_type":[0,0,0,0,0,0,0,0,0,0,0,0,0,0,0],"sum_hessian":[2.0813299E4,1.9478816E4,1.3344827E3,1.2884374E3,1.8190379E4,5.686672E2,7.658154E2,7.60515E2,5.2792236E2,5.286185E2,1.7661762E4,1.6003865E2,4.0862854E2,7.248012E2,4.1014263E1],"tree_param":{"num_deleted":"0","num_feature":"39","num_nodes":"15","size_leaf_vector":"0"}},{"base_weights":[-5.4007774E-4,8.462684E-3,-2.594437E-1,-8.111861E-1,1.2427819E-2,-1.5101782E0,-7.682187E-2,-1.3944393E0,1.1277831E0,3.2549098E-2,-1.3880669E-1,-7.6287997E-1,2.847119E-1],"categories":[],"categories_nodes":[],"categories_segments":[],"categories_sizes":[],"default_left":[true,true,true,true,true,false,true,false,false,false,false,false,false],"id":71,"left_children":[1,3,5,7,9,-1,11,-1,-1,-1,-1,-1,-1],"loss_changes":[4.849224E1,6.53533E1,1.5957074E2,1.1105516E2,6.0894623E1,0E0,1.5178996E2,0E0,0E0,0E0,0E0,0E0,0E0],"parents":[2147483647,0,0,1,1,2,2,3,3,4,4,6,6],"right_children":[2,4,6,8,10,-1,12,-1,-1,-1,-1,-1,-1],"split_conditions":[5E-1,-9.996574E-1,-7.5778425E-1,5E-1,9.22631E-1,-1.5101783E-1,1.2940952E-1,-1.3944393E-1,1.12778306E-1,3.2549098E-3,-1.3880669E-2,-7.6288E-2,2.847119E-2],"split_indices":[18,4,2,19,4,0,1,0,0,0,0,0,0],"split_type":[0,0,0,0,0,0,0,0,0,0,0,0,0],"sum_hessian":[2.0802611E4,2.0104492E4,6.981189E2,9.580923E1,2.0008684E4,8.802012E1,6.1009875E2,7.3869644E1,2.1939587E1,1.7659877E4,2.348807E3,2.1016768E2,3.999311E2],"tree_param":{"num_deleted":"0","num_feature":"39","num_nodes":"13","size_leaf_vector":"0"}},{"base_weights":[-5.322874E-4,-4.649858E-3,5.631042E-1,7.02933E-4,-5.679379E-1,-1.4723341E0,8.804876E-1,1.3830765E-2,-2.8809446E-1,-9.051797E-1,2.3019025E0,1.9036433E0,4.1332954E-1],"categories":[],"categories_nodes":[],"categories_segments":[],"categories_sizes":[],"default_left":[true,true,true,true,true,false,true,false,false,false,false,false,false],"id":72,"left_children":[1,3,5,7,9,-1,11,-1,-1,-1,-1,-1,-1],"loss_changes":[4.826506E1,6.225045E1,9.873154E1,7.754453E1,1.9017676E2,0E0,6.1878304E1,0E0,0E0,0E0,0E0,0E0,0E0],"parents":[2147483647,0,0,1,1,2,2,3,3,4,4,6,6],"right_children":[2,4,6,8,10,-1,12,-1,-1,-1,-1,-1,-1],"split_conditions":[9.998426E-1,9.9817634E-1,5.3592976E-3,5E-1,4.5837017E1,-1.4723341E-1,5.6395624E-3,1.3830765E-3,-2.8809447E-2,-9.051797E-2,2.3019026E-1,1.9036433E-1,4.1332956E-2],"split_indices":[4,4,13,35,13,0,13,0,0,0,0,0,0],"split_type":[0,0,0,0,0,0,0,0,0,0,0,0,0],"sum_hessian":[2.079449E4,2.0644664E4,1.4982507E2,2.0451318E4,1.9334521E2,1.9719744E1,1.3010533E2,1.9562998E4,8.883209E2,1.7362654E2,1.9718674E1,3.9819313E1,9.028602E1],"tree_param":{"num_deleted":"0","num_feature":"39","num_nodes":"13","size_leaf_vector":"0"}},{"base_weights":[-4.832844E-4,1.084467E-2,-2.0417616E-1,-6.0702622E-2,5.323198E-2,8.179478E-2,-1.0071857E0,-3.9725382E-2,-8.852698E-1,-6.117183E-3,1.6608258E-1,-1.3120602E0,3.462405E-1,-2.8448284E-1,-1.8347458E0],"categories":[],"categories_nodes":[],"categories_segments":[],"categories_sizes":[],"default_left":[true,true,true,true,true,true,true,false,false,false,false,false,false,false,false],"id":73,"left_children":[1,3,5,7,9,11,13,-1,-1,-1,-1,-1,-1,-1,-1],"loss_changes":[4.7975292E1,5.97364E1,2.5162048E2,1.2672091E2,8.284503E1,2.9852063E2,1.7156015E2,0E0,0E0,0E0,0E0,0E0,0E0,0E0,0E0],"parents":[2147483647,0,0,1,1,2,2,3,3,4,4,5,5,6,6],"right_children":[2,4,6,8,10,12,14,-1,-1,-1,-1,-1,-1,-1,-1],"split_conditions":[5E-1,-3.7940952E-1,1.8752486E-2,3.416603E-2,5.1973903E-1,-6.854321E-1,4.0156674E-3,-3.9725383E-3,-8.852699E-2,-6.117183E-4,1.6608259E-2,-1.3120602E-1,3.462405E-2,-2.8448284E-2,-1.8347459E-1],"split_indices":[30,0,12,12,4,3,13,0,0,0,0,0,0,0,0],"split_type":[0,0,0,0,0,0,0,0,0,0,0,0,0,0,0],"sum_hessian":[2.0789754E4,1.9695383E4,1.0943708E3,7.327151E3,1.2368232E4,8.0764667E2,2.867242E2,7.1463926E3,1.807582E2,8.1061035E3,4.262129E3,1.2816197E2,6.794847E2,1.537762E2,1.3294801E2],"tree_param":{"num_deleted":"0","num_feature":"39","num_nodes":"15","size_leaf_vector":"0"}},{"base_weights":[-4.787479E-4,-1.2796689E-2,1.998626E-1,1.425567E-2,-3.2796258E-1,3.050139E-1,-9.727446E-1,2.008166E-2,-1.0329084E0,-2.3530239E-1,-1.7044469E0,5.6930333E-1,-1.6346243E-1,1.0393108E0,-1.6382006E0],"categories":[],"categories_nodes":[],"categories_segments":[],"categories_sizes":[],"default_left":[true,true,true,true,true,true,true,false,false,false,false,false,false,false,false],"id":74,"left_children":[1,3,5,7,9,11,13,-1,-1,-1,-1,-1,-1,-1,-1],"loss_changes":[5.1272457E1,1.6688504E2,1.4868388E2,1.09998405E2,1.9694975E2,1.3692886E2,1.3462552E2,0E0,0E0,0E0,0E0,0E0,0E0,0E0,0E0],"parents":[2147483647,0,0,1,1,2,2,3,3,4,4,5,5,6,6],"right_children":[2,4,6,8,10,12,14,-1,-1,-1,-1,-1,-1,-1,-1],"split_conditions":[3.0392751E-2,2.3375731E-2,5E-1,2.1592932E-2,5E-1,3.580106E-2,3.0560587E-2,2.008166E-3,-1.0329085E-1,-2.353024E-2,-1.704447E-1,5.6930333E-2,-1.6346244E-2,1.03931084E-1,-1.6382007E-1],"split_indices":[12,12,25,13,36,12,12,0,0,0,0,0,0,0,0],"split_type":[0,0,0,0,0,0,0,0,0,0,0,0,0,0,0],"sum_hessian":[2.077461E4,1.9572156E4,1.2024532E3,1.8025855E4,1.5462999E3,1.1041781E3,9.8275154E1,1.7927098E4,9.875817E1,1.4498705E3,9.642936E1,7.0579236E2,3.9838574E2,2.4285213E1,7.3989944E1],"tree_param":{"num_deleted":"0","num_feature":"39","num_nodes":"15","size_leaf_vector":"0"}},{"base_weights":[-4.7559474E-4,-8.821942E-3,2.8712118E-1,-1.1443265E-1,2.5696147E-2,7.576919E-1,-1.5736882E-1,1.7964911E-1,-2.4995935E-1,8.202017E-1,1.0621087E-2,8.53811E-1,-1.55441E0,4.2471868E-1,-1.2909695E0],"categories":[],"categories_nodes":[],"categories_segments":[],"categories_sizes":[],"default_left":[true,true,true,true,true,true,true,false,false,false,false,false,false,false,false],"id":75,"left_children":[1,3,5,7,9,11,13,-1,-1,-1,-1,-1,-1,-1,-1],"loss_changes":[4.9846745E1,7.3570366E1,1.22617935E2,1.9817902E2,1.8216711E2,6.4588104E1,1.9982672E2,0E0,0E0,0E0,0E0,0E0,0E0,0E0,0E0],"parents":[2147483647,0,0,1,1,2,2,3,3,4,4,5,5,6,6],"right_children":[2,4,6,8,10,12,14,-1,-1,-1,-1,-1,-1,-1,-1],"split_conditions":[5E-1,9.484522E-3,-6.078576E-1,-6.854321E-1,9.625515E-3,2.1474425E-2,-5.058416E-2,1.7964913E-2,-2.4995936E-2,8.202017E-2,1.0621087E-3,8.5381106E-2,-1.55441E-1,4.2471867E-2,-1.2909696E-1],"split_indices":[16,12,6,3,12,13,2,0,0,0,0,0,0,0,0],"split_type":[0,0,0,0,0,0,0,0,0,0,0,0,0,0,0],"sum_hessian":[2.0764111E4,2.0179453E4,5.846586E2,4.970258E3,1.5209194E4,2.8365518E2,3.0100348E2,1.5678429E3,3.402415E3,2.8221326E2,1.4926981E4,2.7293924E2,1.0715953E1,1.9929416E2,1.0170932E2],"tree_param":{"num_deleted":"0","num_feature":"39","num_nodes":"15","size_leaf_vector":"0"}},{"base_weights":[-4.2991678E-4,8.176485E-3,-2.58608E-1,-1.2796654E0,1.40969185E-2,-7.3221123E-1,2.861282E-1,-9.3382514E-1,1.8578479E-2,4.97053E-1,-1.331745E0,-1.0036272E0,8.471046E-1],"categories":[],"categories_nodes":[],"categories_segments":[],"categories_sizes":[],"default_left":[true,true,true,false,true,true,true,false,false,false,false,false,false],"id":76,"left_children":[1,3,5,-1,7,9,11,-1,-1,-1,-1,-1,-1],"loss_changes":[4.6092815E1,1.530803E2,1.7285457E2,0E0,8.491263E1,2.646879E2,2.2654912E2,0E0,0E0,0E0,0E0,0E0,0E0],"parents":[2147483647,0,0,1,1,2,2,4,4,5,5,6,6],"right_children":[2,4,6,-1,8,10,12,-1,-1,-1,-1,-1,-1],"split_conditions":[5E-1,4.1977133E-4,5.197246E-1,-1.2796654E-1,1.958068E-3,-8.783797E-1,2.5033084E-1,-9.3382515E-2,1.8578479E-3,4.97053E-2,-1.3317451E-1,-1.0036272E-1,8.4710464E-2],"split_indices":[33,13,5,0,12,6,2,0,0,0,0,0,0],"split_type":[0,0,0,0,0,0,0,0,0,0,0,0,0],"sum_hessian":[2.0742035E4,2.007384E4,6.6819586E2,9.087612E1,1.9982963E4,3.5725125E2,3.1094464E2,9.305457E1,1.9889908E4,1.171735E2,2.4007773E2,9.401144E1,2.1693321E2],"tree_param":{"num_deleted":"0","num_feature":"39","num_nodes":"13","size_leaf_vector":"0"}},{"base_weights":[-4.6300585E-4,1.2581889E-2,-1.6784106E-1,5.1586468E-2,-7.4792415E-2,1.2940946E0,-2.2408287E-1,7.272643E-2,-5.712794E-1,-1.0964744E-1,5.92699E-1,-1.185855E0,1.9947768E0,-1.3884918E-1,-1.573896E0],"categories":[],"categories_nodes":[],"categories_segments":[],"categories_sizes":[],"default_left":[true,true,true,true,true,true,true,false,false,false,false,false,false,false,false],"id":77,"left_children":[1,3,5,7,9,11,13,-1,-1,-1,-1,-1,-1,-1,-1],"loss_changes":[4.5250328E1,6.552621E1,1.2349231E2,1.7507356E2,1.3812634E2,9.907865E1,1.6588486E2,0E0,0E0,0E0,0E0,0E0,0E0,0E0,0E0],"parents":[2147483647,0,0,1,1,2,2,3,3,4,4,5,5,6,6],"right_children":[2,4,6,8,10,12,14,-1,-1,-1,-1,-1,-1,-1,-1],"split_conditions":[5E-1,6.035534E-1,4.8481536E-4,1.8458925E-2,1.9761559E-2,6.078576E-1,9.330127E-1,7.272643E-3,-5.712794E-2,-1.0964744E-2,5.92699E-2,-1.18585505E-1,1.9947769E-1,-1.3884919E-2,-1.5738961E-1],"split_indices":[27,1,13,13,13,6,11,0,0,0,0,0,0,0,0],"split_type":[0,0,0,0,0,0,0,0,0,0,0,0,0,0,0],"sum_hessian":[2.0722465E4,1.9225053E4,1.4974125E3,1.3291867E4,5.933185E3,5.4657207E1,1.4427554E3,1.2856406E4,4.3546112E2,5.6395356E3,2.9364917E2,1.1888256E1,4.276895E1,1.3581012E3,8.465415E1],"tree_param":{"num_deleted":"0","num_feature":"39","num_nodes":"15","size_leaf_vector":"0"}},{"base_weights":[-4.5183746E-4,-2.0509789E-2,1.0968806E-1,-1.160543E-2,-9.765498E-1,5.3618556E-1,-5.6140676E-2,-2.9564452E-1,1.2377986E-2,3.551461E-1,-1.7586539E0,6.5591913E-1,-1.7811987E0,-4.063603E-1,